<?xml version="1.0"?>
<MethodSetup Method="BDT::BDTG">
  <GeneralInfo>
    <Info name="TMVA Release" value="4.2.1 [262657]"/>
    <Info name="ROOT Release" value="6.12/07 [396295]"/>
    <Info name="Creator" value="szhaozho"/>
    <Info name="Date" value="Fri Nov  5 01:56:35 2021"/>
    <Info name="Host" value="Linux cmsbuild73.cern.ch 2.6.32-754.3.5.el6.x86_64 #1 SMP Wed Aug 15 08:57:36 CEST 2018 x86_64 x86_64 x86_64 GNU/Linux"/>
    <Info name="Dir" value="/raid5/data/szhaozho/ppNewTMVA/CMSSW_10_3_2/src/Bs/train"/>
    <Info name="Training events" value="182229"/>
    <Info name="TrainingTime" value="9.55596271e+01"/>
    <Info name="AnalysisType" value="Classification"/>
  </GeneralInfo>
  <Options>
    <Option name="V" modified="Yes">False</Option>
    <Option name="VerbosityLevel" modified="No">Default</Option>
    <Option name="VarTransform" modified="No">None</Option>
    <Option name="H" modified="Yes">False</Option>
    <Option name="CreateMVAPdfs" modified="No">False</Option>
    <Option name="IgnoreNegWeightsInTraining" modified="No">False</Option>
    <Option name="NTrees" modified="Yes">500</Option>
    <Option name="MaxDepth" modified="Yes">4</Option>
    <Option name="MinNodeSize" modified="Yes">5.0%</Option>
    <Option name="nCuts" modified="Yes">15000</Option>
    <Option name="BoostType" modified="Yes">Grad</Option>
    <Option name="AdaBoostR2Loss" modified="No">quadratic</Option>
    <Option name="UseBaggedBoost" modified="Yes">True</Option>
    <Option name="Shrinkage" modified="Yes">5.000000e-01</Option>
    <Option name="AdaBoostBeta" modified="No">5.000000e-01</Option>
    <Option name="UseRandomisedTrees" modified="No">False</Option>
    <Option name="UseNvars" modified="No">3</Option>
    <Option name="UsePoissonNvars" modified="No">True</Option>
    <Option name="BaggedSampleFraction" modified="Yes">5.000000e-01</Option>
    <Option name="UseYesNoLeaf" modified="No">True</Option>
    <Option name="NegWeightTreatment" modified="No">pray</Option>
    <Option name="Css" modified="No">1.000000e+00</Option>
    <Option name="Cts_sb" modified="No">1.000000e+00</Option>
    <Option name="Ctb_ss" modified="No">1.000000e+00</Option>
    <Option name="Cbb" modified="No">1.000000e+00</Option>
    <Option name="NodePurityLimit" modified="No">5.000000e-01</Option>
    <Option name="SeparationType" modified="No">giniindex</Option>
    <Option name="RegressionLossFunctionBDTG" modified="No">huber</Option>
    <Option name="HuberQuantile" modified="No">7.000000e-01</Option>
    <Option name="DoBoostMonitor" modified="No">False</Option>
    <Option name="UseFisherCuts" modified="No">False</Option>
    <Option name="MinLinCorrForFisher" modified="No">8.000000e-01</Option>
    <Option name="UseExclusiveVars" modified="No">False</Option>
    <Option name="DoPreselection" modified="No">False</Option>
    <Option name="SigToBkgFraction" modified="No">1.000000e+00</Option>
    <Option name="PruneMethod" modified="No">nopruning</Option>
    <Option name="PruneStrength" modified="No">0.000000e+00</Option>
    <Option name="PruningValFraction" modified="No">5.000000e-01</Option>
    <Option name="SkipNormalization" modified="No">False</Option>
    <Option name="nEventsMin" modified="No">0</Option>
    <Option name="UseBaggedGrad" modified="No">False</Option>
    <Option name="GradBaggingFraction" modified="No">5.000000e-01</Option>
    <Option name="UseNTrainEvents" modified="No">0</Option>
    <Option name="NNodesMax" modified="No">0</Option>
  </Options>
  <Variables NVar="9">
    <Variable VarIndex="0" Expression="Btrk1Pt" Label="Btrk1Pt" Title="Btrk1Pt" Unit="" Internal="Btrk1Pt" Type="F" Min="2.00000167e-01" Max="2.21505070e+00"/>
    <Variable VarIndex="1" Expression="Btrk2Pt" Label="Btrk2Pt" Title="Btrk2Pt" Unit="" Internal="Btrk2Pt" Type="F" Min="2.00001091e-01" Max="2.11966014e+00"/>
    <Variable VarIndex="2" Expression="abs(Btrk1Dz1/Btrk1DzError1)" Label="Trk1DCAz" Title="Trk1DCAz" Unit="" Internal="Trk1DCAz" Type="F" Min="2.54316910e-06" Max="2.67698022e+03"/>
    <Variable VarIndex="3" Expression="abs(Btrk2Dz1/Btrk2DzError1)" Label="Trk2DCAz" Title="Trk2DCAz" Unit="" Internal="Trk2DCAz" Type="F" Min="4.75748357e-06" Max="2.95396558e+03"/>
    <Variable VarIndex="4" Expression="abs(Btrk1Dxy1/Btrk1DxyError1)" Label="Trk1DCAxy" Title="Trk1DCAxy" Unit="" Internal="Trk1DCAxy" Type="F" Min="2.21857749e-06" Max="1.05662165e+01"/>
    <Variable VarIndex="5" Expression="abs(Btrk2Dxy1/Btrk2DxyError1)" Label="Trk2DCAxy" Title="Trk2DCAxy" Unit="" Internal="Trk2DCAxy" Type="F" Min="4.57212036e-06" Max="1.28317575e+01"/>
    <Variable VarIndex="6" Expression="BsvpvDistance/BsvpvDisErr" Label="dls" Title="dls" Unit="" Internal="dls" Type="F" Min="2.00001049e+00" Max="3.49427710e+03"/>
    <Variable VarIndex="7" Expression="Balpha" Label="Balpha" Title="Balpha" Unit="" Internal="Balpha" Type="F" Min="2.16574408e-04" Max="3.13883138e+00"/>
    <Variable VarIndex="8" Expression="Bchi2cl" Label="Bchi2cl" Title="Bchi2cl" Unit="" Internal="Bchi2cl" Type="F" Min="5.00015356e-02" Max="9.99999046e-01"/>
  </Variables>
  <Spectators NSpec="0"/>
  <Classes NClass="2">
    <Class Name="Signal" Index="0"/>
    <Class Name="Background" Index="1"/>
  </Classes>
  <Transformations NTransformations="0"/>
  <MVAPdfs/>
  <Weights NTrees="500" AnalysisType="1">
    <BinaryTree type="DecisionTree" boostWeight="1.0000000000000000e+00" itree="0">
      <Node pos="s" depth="0" NCoef="0" IVar="1" Cut="5.3024381399154663e-01" cType="1" res="3.2204305753111839e-03" rms="4.9998962879180908e-01" purity="5.0322043895721436e-01" nType="0">
        <Node pos="l" depth="1" NCoef="0" IVar="7" Cut="1.0536370426416397e-01" cType="1" res="-2.6264819502830505e-01" rms="4.2545968294143677e-01" purity="2.3735181987285614e-01" nType="0">
          <Node pos="l" depth="2" NCoef="0" IVar="-1" Cut="0.0000000000000000e+00" cType="1" res="2.1080830693244934e-01" rms="4.5338711142539978e-01" purity="7.1080827713012695e-01" nType="-99"/>
          <Node pos="r" depth="2" NCoef="0" IVar="0" Cut="3.7417167425155640e-01" cType="1" res="-3.6579343676567078e-01" rms="3.4087410569190979e-01" purity="1.3420656323432922e-01" nType="0">
            <Node pos="l" depth="3" NCoef="0" IVar="7" Cut="1.8828073143959045e-01" cType="1" res="-4.5118471980094910e-01" rms="2.1548166871070862e-01" purity="4.8815280199050903e-02" nType="0">
              <Node pos="l" depth="4" NCoef="0" IVar="-1" Cut="0.0000000000000000e+00" cType="1" res="-3.5781392455101013e-01" rms="3.4924089908599854e-01" purity="1.4218607544898987e-01" nType="-99"/>
              <Node pos="r" depth="4" NCoef="0" IVar="-1" Cut="0.0000000000000000e+00" cType="1" res="-4.8520022630691528e-01" rms="1.2075072526931763e-01" purity="1.4799770899116993e-02" nType="-99"/>
            </Node>
            <Node pos="r" depth="3" NCoef="0" IVar="6" Cut="3.3122465610504150e+00" cType="1" res="-2.8827530145645142e-01" rms="4.0853071212768555e-01" purity="2.1172468364238739e-01" nType="0">
              <Node pos="l" depth="4" NCoef="0" IVar="-1" Cut="0.0000000000000000e+00" cType="1" res="-4.3871450424194336e-01" rms="2.3985323309898376e-01" purity="6.1285484582185745e-02" nType="-99"/>
              <Node pos="r" depth="4" NCoef="0" IVar="-1" Cut="0.0000000000000000e+00" cType="1" res="-1.8726478517055511e-01" rms="4.6360749006271362e-01" purity="3.1273519992828369e-01" nType="-99"/>
            </Node>
          </Node>
        </Node>
        <Node pos="r" depth="1" NCoef="0" IVar="0" Cut="4.7204911708831787e-01" cType="1" res="2.4552981555461884e-01" rms="4.3556296825408936e-01" purity="7.4552983045578003e-01" nType="0">
          <Node pos="l" depth="2" NCoef="0" IVar="-1" Cut="0.0000000000000000e+00" cType="1" res="-1.7111176252365112e-01" rms="4.6980929374694824e-01" purity="3.2888820767402649e-01" nType="-99"/>
          <Node pos="r" depth="2" NCoef="0" IVar="6" Cut="4.2081313133239746e+00" cType="1" res="3.3826127648353577e-01" rms="3.6821097135543823e-01" purity="8.3826124668121338e-01" nType="0">
            <Node pos="l" depth="3" NCoef="0" IVar="-1" Cut="0.0000000000000000e+00" cType="1" res="6.6314414143562317e-02" rms="4.9558287858963013e-01" purity="5.6631439924240112e-01" nType="-99"/>
            <Node pos="r" depth="3" NCoef="0" IVar="-1" Cut="0.0000000000000000e+00" cType="1" res="4.1354802250862122e-01" rms="2.8103032708168030e-01" purity="9.1354799270629883e-01" nType="-99"/>
          </Node>
        </Node>
      </Node>
    </BinaryTree>
    <BinaryTree type="DecisionTree" boostWeight="1.0000000000000000e+00" itree="1">
      <Node pos="s" depth="0" NCoef="0" IVar="0" Cut="6.7886626720428467e-01" cType="1" res="-7.7828816138207912e-03" rms="4.0423965454101562e-01" purity="4.8960044980049133e-01" nType="0">
        <Node pos="l" depth="1" NCoef="0" IVar="7" Cut="9.7628451883792877e-02" cType="1" res="-1.3562922179698944e-01" rms="3.9255124330520630e-01" purity="2.8023913502693176e-01" nType="0">
          <Node pos="l" depth="2" NCoef="0" IVar="-1" Cut="0.0000000000000000e+00" cType="1" res="1.8274208903312683e-01" rms="4.2305114865303040e-01" purity="7.6532411575317383e-01" nType="-99"/>
          <Node pos="r" depth="2" NCoef="0" IVar="8" Cut="4.6822842955589294e-01" cType="1" res="-2.0080316066741943e-01" rms="3.5297223925590515e-01" purity="1.7704923450946808e-01" nType="0">
            <Node pos="l" depth="3" NCoef="0" IVar="1" Cut="5.1683199405670166e-01" cType="1" res="-2.8905692696571350e-01" rms="2.5360843539237976e-01" purity="7.8183673322200775e-02" nType="0">
              <Node pos="l" depth="4" NCoef="0" IVar="-1" Cut="0.0000000000000000e+00" cType="1" res="-3.0410531163215637e-01" rms="2.2996367514133453e-01" purity="6.1092607676982880e-02" nType="-99"/>
              <Node pos="r" depth="4" NCoef="0" IVar="-1" Cut="0.0000000000000000e+00" cType="1" res="-3.8736245036125183e-01" rms="2.9570883512496948e-01" purity="1.2469661235809326e-01" nType="-99"/>
            </Node>
            <Node pos="r" depth="3" NCoef="0" IVar="5" Cut="1.0699785947799683e+00" cType="1" res="-9.4403564929962158e-02" rms="4.2017030715942383e-01" purity="2.9624250531196594e-01" nType="0">
              <Node pos="l" depth="4" NCoef="0" IVar="-1" Cut="0.0000000000000000e+00" cType="1" res="-1.9886367022991180e-01" rms="3.6813381314277649e-01" purity="2.0610107481479645e-01" nType="-99"/>
              <Node pos="r" depth="4" NCoef="0" IVar="-1" Cut="0.0000000000000000e+00" cType="1" res="1.5232793986797333e-01" rms="4.6954208612442017e-01" purity="5.5341458320617676e-01" nType="-99"/>
            </Node>
          </Node>
        </Node>
        <Node pos="r" depth="1" NCoef="0" IVar="7" Cut="3.0958518385887146e-01" cType="1" res="1.9467730820178986e-01" rms="3.3359313011169434e-01" purity="8.2114934921264648e-01" nType="0">
          <Node pos="l" depth="2" NCoef="0" IVar="-1" Cut="0.0000000000000000e+00" cType="1" res="2.9949048161506653e-01" rms="2.6787957549095154e-01" purity="9.0505021810531616e-01" nType="-99"/>
          <Node pos="r" depth="2" NCoef="0" IVar="-1" Cut="0.0000000000000000e+00" cType="1" res="-2.3456154391169548e-02" rms="4.1387489438056946e-01" purity="5.6313830614089966e-01" nType="-99"/>
        </Node>
      </Node>
    </BinaryTree>
    <BinaryTree type="DecisionTree" boostWeight="1.0000000000000000e+00" itree="2">
      <Node pos="s" depth="0" NCoef="0" IVar="1" Cut="3.9566540718078613e-01" cType="1" res="1.7793587176129222e-03" rms="3.6563587188720703e-01" purity="4.8677974939346313e-01" nType="0">
        <Node pos="l" depth="1" NCoef="0" IVar="8" Cut="5.6024199724197388e-01" cType="1" res="-1.5342497825622559e-01" rms="3.0002081394195557e-01" purity="1.5475721657276154e-01" nType="0">
          <Node pos="l" depth="2" NCoef="0" IVar="2" Cut="3.8622899055480957e+00" cType="1" res="-1.9968129694461823e-01" rms="2.2334259748458862e-01" purity="8.9603565633296967e-02" nType="0">
            <Node pos="l" depth="3" NCoef="0" IVar="7" Cut="4.0471988916397095e-01" cType="1" res="-2.4833643436431885e-01" rms="1.5916883945465088e-01" purity="8.7647968903183937e-03" nType="0">
              <Node pos="l" depth="4" NCoef="0" IVar="-1" Cut="0.0000000000000000e+00" cType="1" res="-4.3990018963813782e-01" rms="2.1900846064090729e-01" purity="2.0177468657493591e-02" nType="-99"/>
              <Node pos="r" depth="4" NCoef="0" IVar="-1" Cut="0.0000000000000000e+00" cType="1" res="-3.1692478060722351e-01" rms="4.8887956887483597e-02" purity="0.0000000000000000e+00" nType="-99"/>
            </Node>
            <Node pos="r" depth="3" NCoef="0" IVar="-1" Cut="0.0000000000000000e+00" cType="1" res="-1.7014949023723602e-01" rms="2.7920186519622803e-01" purity="2.1155114471912384e-01" nType="-99"/>
          </Node>
          <Node pos="r" depth="2" NCoef="0" IVar="0" Cut="3.9333361387252808e-01" cType="1" res="-7.1799620985984802e-02" rms="3.8780122995376587e-01" purity="2.6972943544387817e-01" nType="0">
            <Node pos="l" depth="3" NCoef="0" IVar="-1" Cut="0.0000000000000000e+00" cType="1" res="-2.3993191123008728e-01" rms="3.0362764000892639e-01" purity="9.3467004597187042e-02" nType="-99"/>
            <Node pos="r" depth="3" NCoef="0" IVar="-1" Cut="0.0000000000000000e+00" cType="1" res="3.3061396330595016e-02" rms="4.3356972932815552e-01" purity="4.4427710771560669e-01" nType="-99"/>
          </Node>
        </Node>
        <Node pos="r" depth="1" NCoef="0" IVar="7" Cut="2.9706809520721436e+00" cType="1" res="7.0810683071613312e-02" rms="3.7099444866180420e-01" purity="6.3445574045181274e-01" nType="0">
          <Node pos="l" depth="2" NCoef="0" IVar="2" Cut="1.3824055194854736e+00" cType="1" res="1.0092031210660934e-01" rms="3.6216345429420471e-01" purity="6.7823892831802368e-01" nType="0">
            <Node pos="l" depth="3" NCoef="0" IVar="7" Cut="6.3307917118072510e-01" cType="1" res="-5.9037614613771439e-02" rms="3.9447382092475891e-01" purity="3.8492280244827271e-01" nType="0">
              <Node pos="l" depth="4" NCoef="0" IVar="-1" Cut="0.0000000000000000e+00" cType="1" res="3.2771047204732895e-02" rms="4.1678887605667114e-01" purity="5.3933173418045044e-01" nType="-99"/>
              <Node pos="r" depth="4" NCoef="0" IVar="-1" Cut="0.0000000000000000e+00" cType="1" res="-3.0137965083122253e-01" rms="2.6761704683303833e-01" purity="6.6417865455150604e-02" nType="-99"/>
            </Node>
            <Node pos="r" depth="3" NCoef="0" IVar="6" Cut="5.0108230590820312e+01" cType="1" res="1.6900946199893951e-01" rms="3.2438927888870239e-01" purity="8.0309450626373291e-01" nType="0">
              <Node pos="l" depth="4" NCoef="0" IVar="-1" Cut="0.0000000000000000e+00" cType="1" res="2.8004044294357300e-01" rms="2.6557943224906921e-01" purity="8.8184314966201782e-01" nType="-99"/>
              <Node pos="r" depth="4" NCoef="0" IVar="-1" Cut="0.0000000000000000e+00" cType="1" res="1.3301941752433777e-01" rms="3.9689901471138000e-01" purity="6.7011409997940063e-01" nType="-99"/>
            </Node>
          </Node>
          <Node pos="r" depth="2" NCoef="0" IVar="-1" Cut="0.0000000000000000e+00" cType="1" res="-3.6410558223724365e-01" rms="2.6482146978378296e-01" purity="9.8984524607658386e-02" nType="-99"/>
        </Node>
      </Node>
    </BinaryTree>
    <BinaryTree type="DecisionTree" boostWeight="1.0000000000000000e+00" itree="3">
      <Node pos="s" depth="0" NCoef="0" IVar="7" Cut="8.9401684701442719e-02" cType="1" res="1.3472363352775574e-02" rms="3.3207535743713379e-01" purity="5.1133596897125244e-01" nType="0">
        <Node pos="l" depth="1" NCoef="0" IVar="-1" Cut="0.0000000000000000e+00" cType="1" res="2.0691320300102234e-01" rms="2.4117051064968109e-01" purity="9.1570711135864258e-01" nType="-99"/>
        <Node pos="r" depth="1" NCoef="0" IVar="7" Cut="2.9761927127838135e+00" cType="1" res="-2.9613023623824120e-02" rms="3.5138937830924988e-01" purity="3.5680356621742249e-01" nType="0">
          <Node pos="l" depth="2" NCoef="0" IVar="1" Cut="3.9566528797149658e-01" cType="1" res="-6.2727369368076324e-03" rms="3.6426410079002380e-01" purity="4.0270355343818665e-01" nType="0">
            <Node pos="l" depth="3" NCoef="0" IVar="4" Cut="1.0317345857620239e+00" cType="1" res="-9.9401019513607025e-02" rms="2.6152056455612183e-01" purity="8.3767943084239960e-02" nType="0">
              <Node pos="l" depth="4" NCoef="0" IVar="-1" Cut="0.0000000000000000e+00" cType="1" res="-2.3387093842029572e-01" rms="2.0541000366210938e-01" purity="5.7149153202772141e-02" nType="-99"/>
              <Node pos="r" depth="4" NCoef="0" IVar="-1" Cut="0.0000000000000000e+00" cType="1" res="-3.7970975041389465e-02" rms="3.6304417252540588e-01" purity="1.5680347383022308e-01" nType="-99"/>
            </Node>
            <Node pos="r" depth="3" NCoef="0" IVar="6" Cut="2.4538862705230713e+00" cType="1" res="4.0183499455451965e-02" rms="3.9784032106399536e-01" purity="5.6180179119110107e-01" nType="0">
              <Node pos="l" depth="4" NCoef="0" IVar="-1" Cut="0.0000000000000000e+00" cType="1" res="-1.8085341155529022e-01" rms="3.3820450305938721e-01" purity="2.1903432905673981e-01" nType="-99"/>
              <Node pos="r" depth="4" NCoef="0" IVar="-1" Cut="0.0000000000000000e+00" cType="1" res="1.0193464159965515e-01" rms="3.9941334724426270e-01" purity="6.3179850578308105e-01" nType="-99"/>
            </Node>
          </Node>
          <Node pos="r" depth="2" NCoef="0" IVar="-1" Cut="0.0000000000000000e+00" cType="1" res="-3.4755396842956543e-01" rms="1.2123173475265503e-01" purity="0.0000000000000000e+00" nType="-99"/>
        </Node>
      </Node>
    </BinaryTree>
    <BinaryTree type="DecisionTree" boostWeight="1.0000000000000000e+00" itree="4">
      <Node pos="s" depth="0" NCoef="0" IVar="3" Cut="1.0874067544937134e+00" cType="1" res="-1.2034128885716200e-03" rms="3.1529787182807922e-01" purity="5.0436800718307495e-01" nType="0">
        <Node pos="l" depth="1" NCoef="0" IVar="2" Cut="1.8550122976303101e+00" cType="1" res="-1.1648014187812805e-01" rms="3.0011314153671265e-01" purity="1.9196109473705292e-01" nType="0">
          <Node pos="l" depth="2" NCoef="0" IVar="7" Cut="2.2897478938102722e-01" cType="1" res="-1.4055252075195312e-01" rms="2.6771193742752075e-01" purity="1.2866476178169250e-01" nType="0">
            <Node pos="l" depth="3" NCoef="0" IVar="-1" Cut="0.0000000000000000e+00" cType="1" res="-2.9006534814834595e-01" rms="3.7139505147933960e-01" purity="2.5731518864631653e-01" nType="-99"/>
            <Node pos="r" depth="3" NCoef="0" IVar="1" Cut="4.3974533677101135e-01" cType="1" res="-1.2103967368602753e-01" rms="2.1168540418148041e-01" purity="7.9180009663105011e-02" nType="0">
              <Node pos="l" depth="4" NCoef="0" IVar="-1" Cut="0.0000000000000000e+00" cType="1" res="-2.1427199244499207e-01" rms="1.4580902457237244e-01" purity="3.4680839627981186e-02" nType="-99"/>
              <Node pos="r" depth="4" NCoef="0" IVar="-1" Cut="0.0000000000000000e+00" cType="1" res="-2.4743169546127319e-01" rms="2.6759552955627441e-01" purity="1.3835442066192627e-01" nType="-99"/>
            </Node>
          </Node>
          <Node pos="r" depth="2" NCoef="0" IVar="-1" Cut="0.0000000000000000e+00" cType="1" res="-2.8591381385922432e-02" rms="3.9239740371704102e-01" purity="4.5434999465942383e-01" nType="-99"/>
        </Node>
        <Node pos="r" depth="1" NCoef="0" IVar="2" Cut="2.4269697189331055e+01" cType="1" res="3.9657521992921829e-02" rms="3.1039521098136902e-01" purity="6.1510366201400757e-01" nType="0">
          <Node pos="l" depth="2" NCoef="0" IVar="7" Cut="2.9931604862213135e-01" cType="1" res="8.4865465760231018e-02" rms="2.8595033288002014e-01" purity="7.3455482721328735e-01" nType="0">
            <Node pos="l" depth="3" NCoef="0" IVar="7" Cut="1.4920333027839661e-01" cType="1" res="1.1324218660593033e-01" rms="2.6898518204689026e-01" purity="8.5949617624282837e-01" nType="0">
              <Node pos="l" depth="4" NCoef="0" IVar="-1" Cut="0.0000000000000000e+00" cType="1" res="1.9985988736152649e-01" rms="2.2028818726539612e-01" purity="9.0982913970947266e-01" nType="-99"/>
              <Node pos="r" depth="4" NCoef="0" IVar="-1" Cut="0.0000000000000000e+00" cType="1" res="2.7079880237579346e-01" rms="4.0395706892013550e-01" purity="6.5473723411560059e-01" nType="-99"/>
            </Node>
            <Node pos="r" depth="3" NCoef="0" IVar="-1" Cut="0.0000000000000000e+00" cType="1" res="-7.7263027429580688e-02" rms="3.2273176312446594e-01" purity="1.7660605907440186e-01" nType="-99"/>
          </Node>
          <Node pos="r" depth="2" NCoef="0" IVar="7" Cut="1.7157697677612305e-01" cType="1" res="-3.7896282970905304e-02" rms="3.3441334962844849e-01" purity="4.1018629074096680e-01" nType="0">
            <Node pos="l" depth="3" NCoef="0" IVar="-1" Cut="0.0000000000000000e+00" cType="1" res="-4.0777397155761719e-01" rms="2.9212582111358643e-01" purity="2.3123688995838165e-01" nType="-99"/>
            <Node pos="r" depth="3" NCoef="0" IVar="7" Cut="2.9659147262573242e+00" cType="1" res="3.0897848308086395e-02" rms="3.1692749261856079e-01" purity="4.6660780906677246e-01" nType="0">
              <Node pos="l" depth="4" NCoef="0" IVar="-1" Cut="0.0000000000000000e+00" cType="1" res="1.4292493462562561e-01" rms="3.4096372127532959e-01" purity="6.4352321624755859e-01" nType="-99"/>
              <Node pos="r" depth="4" NCoef="0" IVar="-1" Cut="0.0000000000000000e+00" cType="1" res="-2.6991793513298035e-01" rms="1.5683513879776001e-01" purity="3.3518042415380478e-02" nType="-99"/>
            </Node>
          </Node>
        </Node>
      </Node>
    </BinaryTree>
    <BinaryTree type="DecisionTree" boostWeight="1.0000000000000000e+00" itree="5">
      <Node pos="s" depth="0" NCoef="0" IVar="0" Cut="3.6112603545188904e-01" cType="1" res="4.2778835631906986e-03" rms="3.0878782272338867e-01" purity="4.8838314414024353e-01" nType="0">
        <Node pos="l" depth="1" NCoef="0" IVar="7" Cut="1.4906699955463409e-01" cType="1" res="-9.6392594277858734e-02" rms="2.5398936867713928e-01" purity="9.9548988044261932e-02" nType="0">
          <Node pos="l" depth="2" NCoef="0" IVar="-1" Cut="0.0000000000000000e+00" cType="1" res="-2.9135194420814514e-01" rms="3.3734267950057983e-01" purity="2.5530800223350525e-01" nType="-99"/>
          <Node pos="r" depth="2" NCoef="0" IVar="1" Cut="4.6332523226737976e-01" cType="1" res="-7.4615836143493652e-02" rms="2.1889255940914154e-01" purity="5.3690813481807709e-02" nType="0">
            <Node pos="l" depth="3" NCoef="0" IVar="5" Cut="6.9259965419769287e-01" cType="1" res="-5.0905968993902206e-02" rms="1.8925748765468597e-01" purity="5.1275458186864853e-02" nType="0">
              <Node pos="l" depth="4" NCoef="0" IVar="-1" Cut="0.0000000000000000e+00" cType="1" res="-2.9078274965286255e-01" rms="6.8480096757411957e-02" purity="0.0000000000000000e+00" nType="-99"/>
              <Node pos="r" depth="4" NCoef="0" IVar="-1" Cut="0.0000000000000000e+00" cType="1" res="-1.8200645223259926e-02" rms="2.6889044046401978e-01" purity="1.1705422401428223e-01" nType="-99"/>
            </Node>
            <Node pos="r" depth="3" NCoef="0" IVar="-1" Cut="0.0000000000000000e+00" cType="1" res="-2.5516635179519653e-01" rms="2.7447560429573059e-01" purity="6.0320854187011719e-02" nType="-99"/>
          </Node>
        </Node>
        <Node pos="r" depth="1" NCoef="0" IVar="4" Cut="1.3967642784118652e+00" cType="1" res="3.7643145769834518e-02" rms="3.1796047091484070e-01" purity="6.1725467443466187e-01" nType="0">
          <Node pos="l" depth="2" NCoef="0" IVar="8" Cut="4.3215677142143250e-01" cType="1" res="7.1357642300426960e-03" rms="3.3207851648330688e-01" purity="5.3163897991180420e-01" nType="0">
            <Node pos="l" depth="3" NCoef="0" IVar="4" Cut="1.9094628095626831e-01" cType="1" res="-7.2391308844089508e-02" rms="3.1467565894126892e-01" purity="3.5497167706489563e-01" nType="0">
              <Node pos="l" depth="4" NCoef="0" IVar="-1" Cut="0.0000000000000000e+00" cType="1" res="2.8257662430405617e-02" rms="3.3323121070861816e-01" purity="4.8446321487426758e-01" nType="-99"/>
              <Node pos="r" depth="4" NCoef="0" IVar="-1" Cut="0.0000000000000000e+00" cType="1" res="-1.9751951098442078e-01" rms="3.0343201756477356e-01" purity="3.1460791826248169e-01" nType="-99"/>
            </Node>
            <Node pos="r" depth="3" NCoef="0" IVar="1" Cut="6.0874289274215698e-01" cType="1" res="6.3214533030986786e-02" rms="3.3257824182510376e-01" purity="6.5621650218963623e-01" nType="0">
              <Node pos="l" depth="4" NCoef="0" IVar="-1" Cut="0.0000000000000000e+00" cType="1" res="-1.2077322229743004e-02" rms="3.6085802316665649e-01" purity="3.8239997625350952e-01" nType="-99"/>
              <Node pos="r" depth="4" NCoef="0" IVar="-1" Cut="0.0000000000000000e+00" cType="1" res="2.1984569728374481e-01" rms="2.9958331584930420e-01" purity="8.5826247930526733e-01" nType="-99"/>
            </Node>
          </Node>
          <Node pos="r" depth="2" NCoef="0" IVar="-1" Cut="0.0000000000000000e+00" cType="1" res="2.1514581143856049e-01" rms="2.7118030190467834e-01" purity="8.1052148342132568e-01" nType="-99"/>
        </Node>
      </Node>
    </BinaryTree>
    <BinaryTree type="DecisionTree" boostWeight="1.0000000000000000e+00" itree="6">
      <Node pos="s" depth="0" NCoef="0" IVar="2" Cut="9.5557302236557007e-01" cType="1" res="1.5659844502806664e-03" rms="2.8860795497894287e-01" purity="4.8931959271430969e-01" nType="0">
        <Node pos="l" depth="1" NCoef="0" IVar="4" Cut="3.5009083151817322e-01" cType="1" res="-6.7375026643276215e-02" rms="2.7691638469696045e-01" purity="1.8130449950695038e-01" nType="0">
          <Node pos="l" depth="2" NCoef="0" IVar="-1" Cut="0.0000000000000000e+00" cType="1" res="-2.7952950447797775e-02" rms="3.0610129237174988e-01" purity="2.6806616783142090e-01" nType="-99"/>
          <Node pos="r" depth="2" NCoef="0" IVar="0" Cut="4.3380945920944214e-01" cType="1" res="-1.0006916522979736e-01" rms="2.5205728411674500e-01" purity="1.2869149446487427e-01" nType="0">
            <Node pos="l" depth="3" NCoef="0" IVar="-1" Cut="0.0000000000000000e+00" cType="1" res="-1.7167243361473083e-01" rms="2.4967202544212341e-01" purity="7.2275184094905853e-02" nType="-99"/>
            <Node pos="r" depth="3" NCoef="0" IVar="-1" Cut="0.0000000000000000e+00" cType="1" res="-2.8942194581031799e-01" rms="2.4638377130031586e-01" purity="2.0116408169269562e-01" nType="-99"/>
          </Node>
        </Node>
        <Node pos="r" depth="1" NCoef="0" IVar="7" Cut="2.9759910106658936e+00" cType="1" res="2.3980276659131050e-02" rms="2.8878462314605713e-01" purity="5.8946233987808228e-01" nType="0">
          <Node pos="l" depth="2" NCoef="0" IVar="6" Cut="2.6630411148071289e+00" cType="1" res="3.5699747502803802e-02" rms="3.0038020014762878e-01" purity="6.5240818262100220e-01" nType="0">
            <Node pos="l" depth="3" NCoef="0" IVar="-1" Cut="0.0000000000000000e+00" cType="1" res="-1.4579634368419647e-01" rms="3.1155568361282349e-01" purity="2.2610656917095184e-01" nType="-99"/>
            <Node pos="r" depth="3" NCoef="0" IVar="4" Cut="2.9121541976928711e-01" cType="1" res="4.8375423997640610e-02" rms="2.9642298817634583e-01" purity="7.0011925697326660e-01" nType="0">
              <Node pos="l" depth="4" NCoef="0" IVar="-1" Cut="0.0000000000000000e+00" cType="1" res="-7.7554136514663696e-02" rms="2.9070848226547241e-01" purity="5.3495138883590698e-01" nType="-99"/>
              <Node pos="r" depth="4" NCoef="0" IVar="-1" Cut="0.0000000000000000e+00" cType="1" res="1.3388730585575104e-01" rms="2.9461586475372314e-01" purity="7.3326599597930908e-01" nType="-99"/>
            </Node>
          </Node>
          <Node pos="r" depth="2" NCoef="0" IVar="-1" Cut="0.0000000000000000e+00" cType="1" res="-2.9647889733314514e-01" rms="7.8036375343799591e-02" purity="0.0000000000000000e+00" nType="-99"/>
        </Node>
      </Node>
    </BinaryTree>
    <BinaryTree type="DecisionTree" boostWeight="1.0000000000000000e+00" itree="7">
      <Node pos="s" depth="0" NCoef="0" IVar="1" Cut="4.5286744832992554e-01" cType="1" res="3.7470078095793724e-03" rms="2.7872228622436523e-01" purity="5.0879359245300293e-01" nType="0">
        <Node pos="l" depth="1" NCoef="0" IVar="6" Cut="1.8871629714965820e+01" cType="1" res="-4.3876897543668747e-02" rms="2.5487959384918213e-01" purity="1.5978658199310303e-01" nType="0">
          <Node pos="l" depth="2" NCoef="0" IVar="2" Cut="1.8693472146987915e+00" cType="1" res="-2.1973455324769020e-02" rms="2.5705587863922119e-01" purity="2.0249715447425842e-01" nType="0">
            <Node pos="l" depth="3" NCoef="0" IVar="8" Cut="5.7376044988632202e-01" cType="1" res="-6.5189167857170105e-02" rms="1.9281864166259766e-01" purity="5.2943229675292969e-02" nType="0">
              <Node pos="l" depth="4" NCoef="0" IVar="-1" Cut="0.0000000000000000e+00" cType="1" res="-3.3836114406585693e-01" rms="1.2174960970878601e-01" purity="0.0000000000000000e+00" nType="-99"/>
              <Node pos="r" depth="4" NCoef="0" IVar="-1" Cut="0.0000000000000000e+00" cType="1" res="-5.0183340907096863e-02" rms="2.9793086647987366e-01" purity="1.8164640665054321e-01" nType="-99"/>
            </Node>
            <Node pos="r" depth="3" NCoef="0" IVar="-1" Cut="0.0000000000000000e+00" cType="1" res="1.7667843401432037e-01" rms="3.5015374422073364e-01" purity="5.8168178796768188e-01" nType="-99"/>
          </Node>
          <Node pos="r" depth="2" NCoef="0" IVar="7" Cut="2.8721473217010498e+00" cType="1" res="-8.5101626813411713e-02" rms="2.4548782408237457e-01" purity="7.9400487244129181e-02" nType="0">
            <Node pos="l" depth="3" NCoef="0" IVar="-1" Cut="0.0000000000000000e+00" cType="1" res="-2.6393079757690430e-01" rms="2.2854495048522949e-01" purity="8.0455653369426727e-02" nType="-99"/>
            <Node pos="r" depth="3" NCoef="0" IVar="-1" Cut="0.0000000000000000e+00" cType="1" res="-1.0256802290678024e-01" rms="2.5059878826141357e-01" purity="7.8372634947299957e-02" nType="-99"/>
          </Node>
        </Node>
        <Node pos="r" depth="1" NCoef="0" IVar="8" Cut="3.7804776430130005e-01" cType="1" res="3.0536364763975143e-02" rms="2.8783550858497620e-01" purity="7.0511668920516968e-01" nType="0">
          <Node pos="l" depth="2" NCoef="0" IVar="0" Cut="5.8672976493835449e-01" cType="1" res="-1.7888022586703300e-02" rms="2.9464578628540039e-01" purity="5.5921870470046997e-01" nType="0">
            <Node pos="l" depth="3" NCoef="0" IVar="-1" Cut="0.0000000000000000e+00" cType="1" res="-2.1524068713188171e-01" rms="2.6342993974685669e-01" purity="1.7584986984729767e-01" nType="-99"/>
            <Node pos="r" depth="3" NCoef="0" IVar="-1" Cut="0.0000000000000000e+00" cType="1" res="6.9436661899089813e-02" rms="3.0017000436782837e-01" purity="7.7615243196487427e-01" nType="-99"/>
          </Node>
          <Node pos="r" depth="2" NCoef="0" IVar="2" Cut="2.0155990123748779e+00" cType="1" res="5.8466862887144089e-02" rms="2.8005111217498779e-01" purity="7.8926855325698853e-01" nType="0">
            <Node pos="l" depth="3" NCoef="0" IVar="-1" Cut="0.0000000000000000e+00" cType="1" res="1.9456553459167480e-01" rms="3.7038725614547729e-01" purity="6.3818830251693726e-01" nType="-99"/>
            <Node pos="r" depth="3" NCoef="0" IVar="-1" Cut="0.0000000000000000e+00" cType="1" res="8.7523058056831360e-02" rms="2.2360989451408386e-01" purity="8.5598099231719971e-01" nType="-99"/>
          </Node>
        </Node>
      </Node>
    </BinaryTree>
    <BinaryTree type="DecisionTree" boostWeight="1.0000000000000000e+00" itree="8">
      <Node pos="s" depth="0" NCoef="0" IVar="6" Cut="3.6597993373870850e+00" cType="1" res="3.0276188626885414e-03" rms="2.8289097547531128e-01" purity="4.9152687191963196e-01" nType="0">
        <Node pos="l" depth="1" NCoef="0" IVar="1" Cut="4.8065274953842163e-01" cType="1" res="-3.6440268158912659e-02" rms="3.1415441632270813e-01" purity="1.6827583312988281e-01" nType="0">
          <Node pos="l" depth="2" NCoef="0" IVar="1" Cut="3.9784839749336243e-01" cType="1" res="-4.4663315638899803e-03" rms="2.7878499031066895e-01" purity="9.4227835536003113e-02" nType="0">
            <Node pos="l" depth="3" NCoef="0" IVar="6" Cut="2.6458728313446045e+00" cType="1" res="-4.2772486805915833e-02" rms="1.6819556057453156e-01" purity="3.8115173578262329e-02" nType="0">
              <Node pos="l" depth="4" NCoef="0" IVar="-1" Cut="0.0000000000000000e+00" cType="1" res="-3.1991064548492432e-01" rms="9.6267431974411011e-02" purity="0.0000000000000000e+00" nType="-99"/>
              <Node pos="r" depth="4" NCoef="0" IVar="-1" Cut="0.0000000000000000e+00" cType="1" res="-6.5234757959842682e-02" rms="2.4239030480384827e-01" purity="1.0107892751693726e-01" nType="-99"/>
            </Node>
            <Node pos="r" depth="3" NCoef="0" IVar="-1" Cut="0.0000000000000000e+00" cType="1" res="2.5278472900390625e-01" rms="4.4170662760734558e-01" purity="2.4374185502529144e-01" nType="-99"/>
          </Node>
          <Node pos="r" depth="2" NCoef="0" IVar="5" Cut="6.9477808475494385e-01" cType="1" res="-8.3468943834304810e-02" rms="3.5471683740615845e-01" purity="2.7718892693519592e-01" nType="0">
            <Node pos="l" depth="3" NCoef="0" IVar="-1" Cut="0.0000000000000000e+00" cType="1" res="-6.0839079320430756e-02" rms="3.7432226538658142e-01" purity="3.4708526730537415e-01" nType="-99"/>
            <Node pos="r" depth="3" NCoef="0" IVar="-1" Cut="0.0000000000000000e+00" cType="1" res="-2.6930552721023560e-01" rms="3.1253200769424438e-01" purity="1.7775453627109528e-01" nType="-99"/>
          </Node>
        </Node>
        <Node pos="r" depth="1" NCoef="0" IVar="2" Cut="6.6552009582519531e+01" cType="1" res="2.1005997434258461e-02" rms="2.6550316810607910e-01" purity="6.3877391815185547e-01" nType="0">
          <Node pos="l" depth="2" NCoef="0" IVar="2" Cut="1.0561085939407349e+00" cType="1" res="4.8679277300834656e-02" rms="2.5597205758094788e-01" purity="7.3107212781906128e-01" nType="0">
            <Node pos="l" depth="3" NCoef="0" IVar="-1" Cut="0.0000000000000000e+00" cType="1" res="-8.8538430631160736e-02" rms="2.8517696261405945e-01" purity="3.0172640085220337e-01" nType="-99"/>
            <Node pos="r" depth="3" NCoef="0" IVar="1" Cut="5.1667010784149170e-01" cType="1" res="5.9661179780960083e-02" rms="2.4990668892860413e-01" purity="7.8513085842132568e-01" nType="0">
              <Node pos="l" depth="4" NCoef="0" IVar="-1" Cut="0.0000000000000000e+00" cType="1" res="1.9987258315086365e-01" rms="3.2257968187332153e-01" purity="5.6917667388916016e-01" nType="-99"/>
              <Node pos="r" depth="4" NCoef="0" IVar="-1" Cut="0.0000000000000000e+00" cType="1" res="1.3687424361705780e-01" rms="1.9400003552436829e-01" purity="9.0683072805404663e-01" nType="-99"/>
            </Node>
          </Node>
          <Node pos="r" depth="2" NCoef="0" IVar="7" Cut="1.7999444901943207e-01" cType="1" res="-3.4714508801698685e-02" rms="2.7541390061378479e-01" purity="4.5293018221855164e-01" nType="0">
            <Node pos="l" depth="3" NCoef="0" IVar="-1" Cut="0.0000000000000000e+00" cType="1" res="-3.7655776739120483e-01" rms="2.8508388996124268e-01" purity="2.1551792323589325e-01" nType="-99"/>
            <Node pos="r" depth="3" NCoef="0" IVar="1" Cut="4.6930846571922302e-01" cType="1" res="6.3229226507246494e-03" rms="2.5872430205345154e-01" purity="5.2431672811508179e-01" nType="0">
              <Node pos="l" depth="4" NCoef="0" IVar="-1" Cut="0.0000000000000000e+00" cType="1" res="-1.5135484933853149e-01" rms="2.4052500724792480e-01" purity="8.3487510681152344e-02" nType="-99"/>
              <Node pos="r" depth="4" NCoef="0" IVar="-1" Cut="0.0000000000000000e+00" cType="1" res="9.3449704349040985e-02" rms="2.6178506016731262e-01" purity="7.6464056968688965e-01" nType="-99"/>
            </Node>
          </Node>
        </Node>
      </Node>
    </BinaryTree>
    <BinaryTree type="DecisionTree" boostWeight="1.0000000000000000e+00" itree="9">
      <Node pos="s" depth="0" NCoef="0" IVar="5" Cut="1.4140088558197021e+00" cType="1" res="9.1238869354128838e-03" rms="2.7682492136955261e-01" purity="5.0273150205612183e-01" nType="0">
        <Node pos="l" depth="1" NCoef="0" IVar="5" Cut="2.1616384387016296e-01" cType="1" res="-8.8396528735756874e-03" rms="2.8261974453926086e-01" purity="4.2560619115829468e-01" nType="0">
          <Node pos="l" depth="2" NCoef="0" IVar="7" Cut="2.3084313869476318e+00" cType="1" res="-6.7313656210899353e-02" rms="2.4494509398937225e-01" purity="3.0666404962539673e-01" nType="0">
            <Node pos="l" depth="3" NCoef="0" IVar="-1" Cut="0.0000000000000000e+00" cType="1" res="-2.4445869028568268e-01" rms="2.4525409936904907e-01" purity="3.1922486424446106e-01" nType="-99"/>
            <Node pos="r" depth="3" NCoef="0" IVar="-1" Cut="0.0000000000000000e+00" cType="1" res="-8.5691668093204498e-02" rms="2.3864340782165527e-01" purity="2.8355279564857483e-01" nType="-99"/>
          </Node>
          <Node pos="r" depth="2" NCoef="0" IVar="0" Cut="3.7317341566085815e-01" cType="1" res="4.5652990229427814e-03" rms="2.8890627622604370e-01" purity="4.5287322998046875e-01" nType="0">
            <Node pos="l" depth="3" NCoef="0" IVar="2" Cut="6.3715040683746338e-01" cType="1" res="-4.2610496282577515e-02" rms="2.2124397754669189e-01" purity="7.1791976690292358e-02" nType="0">
              <Node pos="l" depth="4" NCoef="0" IVar="-1" Cut="0.0000000000000000e+00" cType="1" res="1.0409199446439743e-01" rms="2.6966506242752075e-01" purity="1.1110247671604156e-01" nType="-99"/>
              <Node pos="r" depth="4" NCoef="0" IVar="-1" Cut="0.0000000000000000e+00" cType="1" res="-2.4436557292938232e-01" rms="1.8511497974395752e-01" purity="5.3029108792543411e-02" nType="-99"/>
            </Node>
            <Node pos="r" depth="3" NCoef="0" IVar="8" Cut="1.5279178321361542e-01" cType="1" res="2.2305242717266083e-02" rms="3.0869942903518677e-01" purity="5.9617471694946289e-01" nType="0">
              <Node pos="l" depth="4" NCoef="0" IVar="-1" Cut="0.0000000000000000e+00" cType="1" res="1.7484457790851593e-01" rms="3.6290803551673889e-01" purity="5.2133864164352417e-01" nType="-99"/>
              <Node pos="r" depth="4" NCoef="0" IVar="-1" Cut="0.0000000000000000e+00" cType="1" res="1.6578584909439087e-02" rms="2.9124349355697632e-01" purity="6.1521434783935547e-01" nType="-99"/>
            </Node>
          </Node>
        </Node>
        <Node pos="r" depth="1" NCoef="0" IVar="4" Cut="5.8567374944686890e-01" cType="1" res="6.5234117209911346e-02" rms="2.4969890713691711e-01" purity="7.4363714456558228e-01" nType="0">
          <Node pos="l" depth="2" NCoef="0" IVar="-1" Cut="0.0000000000000000e+00" cType="1" res="1.7894808202981949e-02" rms="2.3949515819549561e-01" purity="5.4012161493301392e-01" nType="-99"/>
          <Node pos="r" depth="2" NCoef="0" IVar="-1" Cut="0.0000000000000000e+00" cType="1" res="2.6437881588935852e-01" rms="2.4990667402744293e-01" purity="8.2459533214569092e-01" nType="-99"/>
        </Node>
      </Node>
    </BinaryTree>
    <BinaryTree type="DecisionTree" boostWeight="1.0000000000000000e+00" itree="10">
      <Node pos="s" depth="0" NCoef="0" IVar="8" Cut="9.2368859052658081e-01" cType="1" res="1.1364877223968506e-02" rms="2.7403050661087036e-01" purity="5.1260030269622803e-01" nType="0">
        <Node pos="l" depth="1" NCoef="0" IVar="1" Cut="6.9265806674957275e-01" cType="1" res="3.3698228653520346e-03" rms="2.7099695801734924e-01" purity="4.9679985642433167e-01" nType="0">
          <Node pos="l" depth="2" NCoef="0" IVar="7" Cut="1.9774827361106873e-01" cType="1" res="-1.7315274104475975e-02" rms="2.8091311454772949e-01" purity="2.9538694024085999e-01" nType="0">
            <Node pos="l" depth="3" NCoef="0" IVar="7" Cut="1.6413098573684692e-01" cType="1" res="1.4695344492793083e-02" rms="3.3896499872207642e-01" purity="5.1448011398315430e-01" nType="0">
              <Node pos="l" depth="4" NCoef="0" IVar="-1" Cut="0.0000000000000000e+00" cType="1" res="-3.4970484673976898e-02" rms="3.1259232759475708e-01" purity="5.3417289257049561e-01" nType="-99"/>
              <Node pos="r" depth="4" NCoef="0" IVar="-1" Cut="0.0000000000000000e+00" cType="1" res="2.1076181530952454e-01" rms="4.0490520000457764e-01" purity="4.4302532076835632e-01" nType="-99"/>
            </Node>
            <Node pos="r" depth="3" NCoef="0" IVar="4" Cut="1.4880325794219971e+00" cType="1" res="-4.1523788124322891e-02" rms="2.2435891628265381e-01" purity="1.2969446182250977e-01" nType="0">
              <Node pos="l" depth="4" NCoef="0" IVar="-1" Cut="0.0000000000000000e+00" cType="1" res="-2.0266641676425934e-01" rms="1.9863036274909973e-01" purity="7.9404860734939575e-02" nType="-99"/>
              <Node pos="r" depth="4" NCoef="0" IVar="-1" Cut="0.0000000000000000e+00" cType="1" res="6.5274901688098907e-02" rms="3.1647625565528870e-01" purity="3.8541045784950256e-01" nType="-99"/>
            </Node>
          </Node>
          <Node pos="r" depth="2" NCoef="0" IVar="6" Cut="3.4487211704254150e+00" cType="1" res="3.7814851850271225e-02" rms="2.4985398352146149e-01" purity="8.3219450712203979e-01" nType="0">
            <Node pos="l" depth="3" NCoef="0" IVar="-1" Cut="0.0000000000000000e+00" cType="1" res="1.4176604151725769e-01" rms="3.9851692318916321e-01" purity="5.4301679134368896e-01" nType="-99"/>
            <Node pos="r" depth="3" NCoef="0" IVar="-1" Cut="0.0000000000000000e+00" cType="1" res="9.7645089030265808e-02" rms="1.9570635259151459e-01" purity="9.0218091011047363e-01" nType="-99"/>
          </Node>
        </Node>
        <Node pos="r" depth="1" NCoef="0" IVar="-1" Cut="0.0000000000000000e+00" cType="1" res="2.3189005255699158e-01" rms="2.9142090678215027e-01" purity="6.9547969102859497e-01" nType="-99"/>
      </Node>
    </BinaryTree>
    <BinaryTree type="DecisionTree" boostWeight="1.0000000000000000e+00" itree="11">
      <Node pos="s" depth="0" NCoef="0" IVar="1" Cut="3.0972009897232056e-01" cType="1" res="5.6458986364305019e-03" rms="2.6726725697517395e-01" purity="5.0875359773635864e-01" nType="0">
        <Node pos="l" depth="1" NCoef="0" IVar="5" Cut="5.4889112710952759e-01" cType="1" res="-4.0272440761327744e-02" rms="1.5249785780906677e-01" purity="7.2525218129158020e-02" nType="0">
          <Node pos="l" depth="2" NCoef="0" IVar="-1" Cut="0.0000000000000000e+00" cType="1" res="-8.5024386644363403e-02" rms="1.7148569226264954e-01" purity="8.2008451223373413e-02" nType="-99"/>
          <Node pos="r" depth="2" NCoef="0" IVar="-1" Cut="0.0000000000000000e+00" cType="1" res="-3.0723068118095398e-01" rms="1.2511585652828217e-01" purity="6.2419921159744263e-02" nType="-99"/>
        </Node>
        <Node pos="r" depth="1" NCoef="0" IVar="7" Cut="2.9759376049041748e+00" cType="1" res="1.4744594693183899e-02" rms="2.8368520736694336e-01" purity="5.9519213438034058e-01" nType="0">
          <Node pos="l" depth="2" NCoef="0" IVar="7" Cut="2.8613469600677490e+00" cType="1" res="2.0711313933134079e-02" rms="2.9240036010742188e-01" purity="6.4056921005249023e-01" nType="0">
            <Node pos="l" depth="3" NCoef="0" IVar="3" Cut="2.3363006591796875e+01" cType="1" res="6.5887281671166420e-03" rms="2.7977412939071655e-01" purity="6.3491982221603394e-01" nType="0">
              <Node pos="l" depth="4" NCoef="0" IVar="-1" Cut="0.0000000000000000e+00" cType="1" res="6.5794765949249268e-02" rms="2.7859809994697571e-01" purity="6.4767694473266602e-01" nType="-99"/>
              <Node pos="r" depth="4" NCoef="0" IVar="-1" Cut="0.0000000000000000e+00" cType="1" res="-1.4594353735446930e-01" rms="2.7503111958503723e-01" purity="5.8458113670349121e-01" nType="-99"/>
            </Node>
            <Node pos="r" depth="3" NCoef="0" IVar="-1" Cut="0.0000000000000000e+00" cType="1" res="2.1125535666942596e-01" rms="3.4499341249465942e-01" purity="6.7272382974624634e-01" nType="-99"/>
          </Node>
          <Node pos="r" depth="2" NCoef="0" IVar="-1" Cut="0.0000000000000000e+00" cType="1" res="-3.0862531065940857e-01" rms="8.9616529643535614e-02" purity="0.0000000000000000e+00" nType="-99"/>
        </Node>
      </Node>
    </BinaryTree>
    <BinaryTree type="DecisionTree" boostWeight="1.0000000000000000e+00" itree="12">
      <Node pos="s" depth="0" NCoef="0" IVar="3" Cut="3.6245906352996826e-01" cType="1" res="5.4580587893724442e-03" rms="2.6407369971275330e-01" purity="5.1135808229446411e-01" nType="0">
        <Node pos="l" depth="1" NCoef="0" IVar="1" Cut="3.9619815349578857e-01" cType="1" res="-7.0399895310401917e-02" rms="2.0962311327457428e-01" purity="1.3783629238605499e-01" nType="0">
          <Node pos="l" depth="2" NCoef="0" IVar="-1" Cut="0.0000000000000000e+00" cType="1" res="-2.3026460409164429e-01" rms="1.2309043854475021e-01" purity="1.9839230924844742e-02" nType="-99"/>
          <Node pos="r" depth="2" NCoef="0" IVar="-1" Cut="0.0000000000000000e+00" cType="1" res="-2.3669926822185516e-01" rms="2.6392579078674316e-01" purity="2.5408199429512024e-01" nType="-99"/>
        </Node>
        <Node pos="r" depth="1" NCoef="0" IVar="0" Cut="3.1162932515144348e-01" cType="1" res="1.3966540805995464e-02" rms="2.6816064119338989e-01" purity="5.5325353145599365e-01" nType="0">
          <Node pos="l" depth="2" NCoef="0" IVar="1" Cut="3.6945229768753052e-01" cType="1" res="-4.1778709739446640e-02" rms="1.8710352480411530e-01" purity="9.0417914092540741e-02" nType="0">
            <Node pos="l" depth="3" NCoef="0" IVar="-1" Cut="0.0000000000000000e+00" cType="1" res="-9.7039297223091125e-02" rms="1.5061375498771667e-01" purity="2.6700219139456749e-02" nType="-99"/>
            <Node pos="r" depth="3" NCoef="0" IVar="-1" Cut="0.0000000000000000e+00" cType="1" res="-2.0392401516437531e-01" rms="2.1532101929187775e-01" purity="1.5971876680850983e-01" nType="-99"/>
          </Node>
          <Node pos="r" depth="2" NCoef="0" IVar="5" Cut="5.9196203947067261e-01" cType="1" res="2.4487849324941635e-02" rms="2.7960300445556641e-01" purity="6.4060866832733154e-01" nType="0">
            <Node pos="l" depth="3" NCoef="0" IVar="4" Cut="9.8091083765029907e-01" cType="1" res="-7.8359032049775124e-03" rms="2.8625854849815369e-01" purity="5.1398789882659912e-01" nType="0">
              <Node pos="l" depth="4" NCoef="0" IVar="-1" Cut="0.0000000000000000e+00" cType="1" res="-8.9859992265701294e-02" rms="2.6525777578353882e-01" purity="4.5761352777481079e-01" nType="-99"/>
              <Node pos="r" depth="4" NCoef="0" IVar="-1" Cut="0.0000000000000000e+00" cType="1" res="8.5038840770721436e-02" rms="3.1505784392356873e-01" purity="6.1113184690475464e-01" nType="-99"/>
            </Node>
            <Node pos="r" depth="3" NCoef="0" IVar="7" Cut="1.9500644505023956e-01" cType="1" res="4.2881336063146591e-02" rms="2.7404728531837463e-01" purity="7.1266096830368042e-01" nType="0">
              <Node pos="l" depth="4" NCoef="0" IVar="-1" Cut="0.0000000000000000e+00" cType="1" res="5.1265142858028412e-02" rms="2.2619991004467010e-01" purity="8.3500492572784424e-01" nType="-99"/>
              <Node pos="r" depth="4" NCoef="0" IVar="-1" Cut="0.0000000000000000e+00" cType="1" res="1.8823356926441193e-01" rms="3.2083547115325928e-01" purity="5.5853635072708130e-01" nType="-99"/>
            </Node>
          </Node>
        </Node>
      </Node>
    </BinaryTree>
    <BinaryTree type="DecisionTree" boostWeight="1.0000000000000000e+00" itree="13">
      <Node pos="s" depth="0" NCoef="0" IVar="8" Cut="1.3954865932464600e-01" cType="1" res="3.5857285838574171e-03" rms="2.6070517301559448e-01" purity="5.0786602497100830e-01" nType="0">
        <Node pos="l" depth="1" NCoef="0" IVar="1" Cut="4.2784026265144348e-01" cType="1" res="-6.2402229756116867e-02" rms="2.5191000103950500e-01" purity="2.5146430730819702e-01" nType="0">
          <Node pos="l" depth="2" NCoef="0" IVar="-1" Cut="0.0000000000000000e+00" cType="1" res="-2.8313502669334412e-02" rms="2.2199861705303192e-01" purity="1.1464662849903107e-01" nType="-99"/>
          <Node pos="r" depth="2" NCoef="0" IVar="-1" Cut="0.0000000000000000e+00" cType="1" res="-3.0703005194664001e-01" rms="2.6627776026725769e-01" purity="3.7487787008285522e-01" nType="-99"/>
        </Node>
        <Node pos="r" depth="1" NCoef="0" IVar="6" Cut="2.9077060222625732e+00" cType="1" res="1.4966640621423721e-02" rms="2.6050767302513123e-01" purity="5.5208754539489746e-01" nType="0">
          <Node pos="l" depth="2" NCoef="0" IVar="0" Cut="4.0241709351539612e-01" cType="1" res="-3.2611627131700516e-02" rms="2.6323622465133667e-01" purity="1.7870607972145081e-01" nType="0">
            <Node pos="l" depth="3" NCoef="0" IVar="-1" Cut="0.0000000000000000e+00" cType="1" res="3.9221089333295822e-02" rms="2.4117997288703918e-01" purity="8.2397855818271637e-02" nType="-99"/>
            <Node pos="r" depth="3" NCoef="0" IVar="3" Cut="8.6932003498077393e-01" cType="1" res="-6.7040368914604187e-02" rms="2.7603641152381897e-01" purity="2.6076379418373108e-01" nType="0">
              <Node pos="l" depth="4" NCoef="0" IVar="-1" Cut="0.0000000000000000e+00" cType="1" res="-2.7778983116149902e-01" rms="2.1887779235839844e-01" purity="7.9259827733039856e-02" nType="-99"/>
              <Node pos="r" depth="4" NCoef="0" IVar="-1" Cut="0.0000000000000000e+00" cType="1" res="-5.6496083736419678e-02" rms="3.2019248604774475e-01" purity="4.4678968191146851e-01" nType="-99"/>
            </Node>
          </Node>
          <Node pos="r" depth="2" NCoef="0" IVar="2" Cut="5.5320963859558105e+00" cType="1" res="2.8109947219491005e-02" rms="2.5820803642272949e-01" purity="6.5523266792297363e-01" nType="0">
            <Node pos="l" depth="3" NCoef="0" IVar="0" Cut="4.8421218991279602e-01" cType="1" res="6.3636280596256256e-02" rms="2.7923971414566040e-01" purity="7.2978347539901733e-01" nType="0">
              <Node pos="l" depth="4" NCoef="0" IVar="-1" Cut="0.0000000000000000e+00" cType="1" res="2.3985454440116882e-01" rms="3.3815711736679077e-01" purity="4.9212428927421570e-01" nType="-99"/>
              <Node pos="r" depth="4" NCoef="0" IVar="-1" Cut="0.0000000000000000e+00" cType="1" res="1.3195604085922241e-01" rms="2.3578022420406342e-01" purity="8.6556845903396606e-01" nType="-99"/>
            </Node>
            <Node pos="r" depth="3" NCoef="0" IVar="7" Cut="1.6448810696601868e-01" cType="1" res="1.7033581389114261e-03" rms="2.3797933757305145e-01" purity="5.9981936216354370e-01" nType="0">
              <Node pos="l" depth="4" NCoef="0" IVar="-1" Cut="0.0000000000000000e+00" cType="1" res="-2.4235841631889343e-01" rms="1.7235057055950165e-01" purity="6.9233465194702148e-01" nType="-99"/>
              <Node pos="r" depth="4" NCoef="0" IVar="-1" Cut="0.0000000000000000e+00" cType="1" res="7.9105190932750702e-02" rms="2.6742586493492126e-01" purity="5.4209452867507935e-01" nType="-99"/>
            </Node>
          </Node>
        </Node>
      </Node>
    </BinaryTree>
    <BinaryTree type="DecisionTree" boostWeight="1.0000000000000000e+00" itree="14">
      <Node pos="s" depth="0" NCoef="0" IVar="7" Cut="3.4884884953498840e-01" cType="1" res="3.3712959848344326e-03" rms="2.6053053140640259e-01" purity="5.0853830575942993e-01" nType="0">
        <Node pos="l" depth="1" NCoef="0" IVar="6" Cut="2.5321648120880127e+00" cType="1" res="2.5201549753546715e-02" rms="2.7876535058021545e-01" purity="6.7279243469238281e-01" nType="0">
          <Node pos="l" depth="2" NCoef="0" IVar="-1" Cut="0.0000000000000000e+00" cType="1" res="2.8500849008560181e-01" rms="4.0513837337493896e-01" purity="4.2768967151641846e-01" nType="-99"/>
          <Node pos="r" depth="2" NCoef="0" IVar="2" Cut="1.6945701599121094e+02" cType="1" res="7.7068326063454151e-03" rms="2.4961346387863159e-01" purity="7.0986938476562500e-01" nType="0">
            <Node pos="l" depth="3" NCoef="0" IVar="6" Cut="2.1420526123046875e+02" cType="1" res="1.7029767856001854e-02" rms="2.5236561894416809e-01" purity="7.3684597015380859e-01" nType="0">
              <Node pos="l" depth="4" NCoef="0" IVar="-1" Cut="0.0000000000000000e+00" cType="1" res="3.7000760436058044e-02" rms="2.4612699449062347e-01" purity="7.6703035831451416e-01" nType="-99"/>
              <Node pos="r" depth="4" NCoef="0" IVar="-1" Cut="0.0000000000000000e+00" cType="1" res="1.5808883309364319e-01" rms="2.9711791872978210e-01" purity="4.6635261178016663e-01" nType="-99"/>
            </Node>
            <Node pos="r" depth="3" NCoef="0" IVar="-1" Cut="0.0000000000000000e+00" cType="1" res="-2.2530198097229004e-01" rms="2.1515941619873047e-01" purity="5.0646704435348511e-01" nType="-99"/>
          </Node>
        </Node>
        <Node pos="r" depth="1" NCoef="0" IVar="0" Cut="4.5831847190856934e-01" cType="1" res="-3.5232827067375183e-02" rms="2.1943791210651398e-01" purity="2.1807497739791870e-01" nType="0">
          <Node pos="l" depth="2" NCoef="0" IVar="1" Cut="4.6969023346900940e-01" cType="1" res="-9.0236430987715721e-03" rms="2.0541936159133911e-01" purity="9.7694933414459229e-02" nType="0">
            <Node pos="l" depth="3" NCoef="0" IVar="1" Cut="3.5465136170387268e-01" cType="1" res="7.6718907803297043e-03" rms="1.9735303521156311e-01" purity="6.7186832427978516e-02" nType="0">
              <Node pos="l" depth="4" NCoef="0" IVar="-1" Cut="0.0000000000000000e+00" cType="1" res="-2.9261535406112671e-01" rms="5.4361108690500259e-02" purity="0.0000000000000000e+00" nType="-99"/>
              <Node pos="r" depth="4" NCoef="0" IVar="-1" Cut="0.0000000000000000e+00" cType="1" res="2.2587586939334869e-01" rms="3.0976027250289917e-01" purity="1.8253003060817719e-01" nType="-99"/>
            </Node>
            <Node pos="r" depth="3" NCoef="0" IVar="-1" Cut="0.0000000000000000e+00" cType="1" res="-1.6099587082862854e-01" rms="2.1772721409797668e-01" purity="1.6521239280700684e-01" nType="-99"/>
          </Node>
          <Node pos="r" depth="2" NCoef="0" IVar="3" Cut="3.4559984207153320e+00" cType="1" res="-6.5613731741905212e-02" rms="2.3094940185546875e-01" purity="3.5761591792106628e-01" nType="0">
            <Node pos="l" depth="3" NCoef="0" IVar="-1" Cut="0.0000000000000000e+00" cType="1" res="-3.3392193913459778e-01" rms="2.1907700598239899e-01" purity="2.6719661429524422e-02" nType="-99"/>
            <Node pos="r" depth="3" NCoef="0" IVar="-1" Cut="0.0000000000000000e+00" cType="1" res="-9.7369059920310974e-02" rms="2.3376783728599548e-01" purity="6.2414914369583130e-01" nType="-99"/>
          </Node>
        </Node>
      </Node>
    </BinaryTree>
    <BinaryTree type="DecisionTree" boostWeight="1.0000000000000000e+00" itree="15">
      <Node pos="s" depth="0" NCoef="0" IVar="6" Cut="3.0373756885528564e+00" cType="1" res="-4.1862856596708298e-03" rms="2.5033816695213318e-01" purity="4.8909550905227661e-01" nType="0">
        <Node pos="l" depth="1" NCoef="0" IVar="3" Cut="7.4504375457763672e-01" cType="1" res="-3.6471918225288391e-02" rms="2.4917933344841003e-01" purity="1.5593990683555603e-01" nType="0">
          <Node pos="l" depth="2" NCoef="0" IVar="1" Cut="4.3962162733078003e-01" cType="1" res="5.2009699866175652e-03" rms="2.3945380747318268e-01" purity="1.4182487130165100e-01" nType="0">
            <Node pos="l" depth="3" NCoef="0" IVar="-1" Cut="0.0000000000000000e+00" cType="1" res="-2.6232752203941345e-01" rms="1.0285952687263489e-01" purity="1.3857835903763771e-02" nType="-99"/>
            <Node pos="r" depth="3" NCoef="0" IVar="-1" Cut="0.0000000000000000e+00" cType="1" res="1.0745336860418320e-01" rms="3.2991582155227661e-01" purity="2.9123061895370483e-01" nType="-99"/>
          </Node>
          <Node pos="r" depth="2" NCoef="0" IVar="1" Cut="4.2064177989959717e-01" cType="1" res="-8.4546625614166260e-02" rms="2.5151145458221436e-01" purity="1.7222328484058380e-01" nType="0">
            <Node pos="l" depth="3" NCoef="0" IVar="-1" Cut="0.0000000000000000e+00" cType="1" res="-1.5936954319477081e-01" rms="2.0384362339973450e-01" purity="4.0657058358192444e-02" nType="-99"/>
            <Node pos="r" depth="3" NCoef="0" IVar="-1" Cut="0.0000000000000000e+00" cType="1" res="-2.9546251893043518e-01" rms="2.7392745018005371e-01" purity="2.6891210675239563e-01" nType="-99"/>
          </Node>
        </Node>
        <Node pos="r" depth="1" NCoef="0" IVar="2" Cut="8.8582539558410645e-01" cType="1" res="7.1399221196770668e-03" rms="2.4975651502609253e-01" purity="6.0597068071365356e-01" nType="0">
          <Node pos="l" depth="2" NCoef="0" IVar="-1" Cut="0.0000000000000000e+00" cType="1" res="-1.7655622959136963e-01" rms="2.6051563024520874e-01" purity="2.4017210304737091e-01" nType="-99"/>
          <Node pos="r" depth="2" NCoef="0" IVar="6" Cut="4.2818088531494141e+00" cType="1" res="1.4119897969067097e-02" rms="2.4755288660526276e-01" purity="6.4629340171813965e-01" nType="0">
            <Node pos="l" depth="3" NCoef="0" IVar="-1" Cut="0.0000000000000000e+00" cType="1" res="2.0482037961483002e-01" rms="3.8237270712852478e-01" purity="6.3778483867645264e-01" nType="-99"/>
            <Node pos="r" depth="3" NCoef="0" IVar="5" Cut="1.4552085399627686e+00" cType="1" res="3.1567220576107502e-03" rms="2.2347494959831238e-01" purity="6.4731764793395996e-01" nType="0">
              <Node pos="l" depth="4" NCoef="0" IVar="-1" Cut="0.0000000000000000e+00" cType="1" res="-2.5719692930579185e-02" rms="2.3517748713493347e-01" purity="5.6352770328521729e-01" nType="-99"/>
              <Node pos="r" depth="4" NCoef="0" IVar="-1" Cut="0.0000000000000000e+00" cType="1" res="1.2856127321720123e-01" rms="1.8892176449298859e-01" purity="8.5459107160568237e-01" nType="-99"/>
            </Node>
          </Node>
        </Node>
      </Node>
    </BinaryTree>
    <BinaryTree type="DecisionTree" boostWeight="1.0000000000000000e+00" itree="16">
      <Node pos="s" depth="0" NCoef="0" IVar="0" Cut="5.3073889017105103e-01" cType="1" res="1.1829426512122154e-02" rms="2.6722300052642822e-01" purity="4.9677720665931702e-01" nType="0">
        <Node pos="l" depth="1" NCoef="0" IVar="3" Cut="2.6914136886596680e+01" cType="1" res="-8.4778796881437302e-03" rms="2.5894859433174133e-01" purity="2.2054645419120789e-01" nType="0">
          <Node pos="l" depth="2" NCoef="0" IVar="3" Cut="1.6876167058944702e+00" cType="1" res="9.4413179904222488e-03" rms="2.7124544978141785e-01" purity="2.6553684473037720e-01" nType="0">
            <Node pos="l" depth="3" NCoef="0" IVar="1" Cut="2.6215827465057373e-01" cType="1" res="-1.7174903303384781e-02" rms="2.3402874171733856e-01" purity="1.1762421578168869e-01" nType="0">
              <Node pos="l" depth="4" NCoef="0" IVar="-1" Cut="0.0000000000000000e+00" cType="1" res="3.2360729575157166e-01" rms="2.6353013515472412e-01" purity="1.2080953270196915e-01" nType="-99"/>
              <Node pos="r" depth="4" NCoef="0" IVar="-1" Cut="0.0000000000000000e+00" cType="1" res="-1.5386258065700531e-01" rms="2.2057357430458069e-01" purity="1.1665294319391251e-01" nType="-99"/>
            </Node>
            <Node pos="r" depth="3" NCoef="0" IVar="5" Cut="7.2188353538513184e-01" cType="1" res="5.5572777986526489e-02" rms="3.2064077258110046e-01" purity="5.2190029621124268e-01" nType="0">
              <Node pos="l" depth="4" NCoef="0" IVar="-1" Cut="0.0000000000000000e+00" cType="1" res="2.3877629637718201e-01" rms="3.4502202272415161e-01" purity="4.9658042192459106e-01" nType="-99"/>
              <Node pos="r" depth="4" NCoef="0" IVar="-1" Cut="0.0000000000000000e+00" cType="1" res="5.3029502741992474e-03" rms="2.8165411949157715e-01" purity="5.4994088411331177e-01" nType="-99"/>
            </Node>
          </Node>
          <Node pos="r" depth="2" NCoef="0" IVar="1" Cut="3.9675578474998474e-01" cType="1" res="-5.4028868675231934e-02" rms="2.1815131604671478e-01" purity="1.0617984831333160e-01" nType="0">
            <Node pos="l" depth="3" NCoef="0" IVar="-1" Cut="0.0000000000000000e+00" cType="1" res="-9.2948697507381439e-02" rms="1.5370529890060425e-01" purity="4.3647892773151398e-02" nType="-99"/>
            <Node pos="r" depth="3" NCoef="0" IVar="-1" Cut="0.0000000000000000e+00" cType="1" res="-2.4557973444461823e-01" rms="2.6447674632072449e-01" purity="1.7427141964435577e-01" nType="-99"/>
          </Node>
        </Node>
        <Node pos="r" depth="1" NCoef="0" IVar="1" Cut="3.8101193308830261e-01" cType="1" res="3.0091123655438423e-02" rms="2.7316474914550781e-01" purity="7.4518245458602905e-01" nType="0">
          <Node pos="l" depth="2" NCoef="0" IVar="-1" Cut="0.0000000000000000e+00" cType="1" res="3.5850584506988525e-01" rms="3.5697492957115173e-01" purity="3.6051529645919800e-01" nType="-99"/>
          <Node pos="r" depth="2" NCoef="0" IVar="2" Cut="9.3032544851303101e-01" cType="1" res="1.6888169571757317e-02" rms="2.5652229785919189e-01" purity="7.9905462265014648e-01" nType="0">
            <Node pos="l" depth="3" NCoef="0" IVar="-1" Cut="0.0000000000000000e+00" cType="1" res="2.1164914965629578e-01" rms="3.9664447307586670e-01" purity="5.0625151395797729e-01" nType="-99"/>
            <Node pos="r" depth="3" NCoef="0" IVar="3" Cut="2.8071031570434570e+00" cType="1" res="4.8331147991120815e-04" rms="2.1943482756614685e-01" purity="8.4968763589859009e-01" nType="0">
              <Node pos="l" depth="4" NCoef="0" IVar="-1" Cut="0.0000000000000000e+00" cType="1" res="-1.9601738452911377e-01" rms="2.8470298647880554e-01" purity="7.0670080184936523e-01" nType="-99"/>
              <Node pos="r" depth="4" NCoef="0" IVar="-1" Cut="0.0000000000000000e+00" cType="1" res="7.3781326413154602e-02" rms="1.9395533204078674e-01" purity="8.8969010114669800e-01" nType="-99"/>
            </Node>
          </Node>
        </Node>
      </Node>
    </BinaryTree>
    <BinaryTree type="DecisionTree" boostWeight="1.0000000000000000e+00" itree="17">
      <Node pos="s" depth="0" NCoef="0" IVar="3" Cut="7.4761956930160522e-01" cType="1" res="1.3696940615773201e-02" rms="2.5447702407836914e-01" purity="5.2098989486694336e-01" nType="0">
        <Node pos="l" depth="1" NCoef="0" IVar="7" Cut="1.6109268665313721e+00" cType="1" res="5.3284298628568649e-02" rms="3.1584957242012024e-01" purity="2.6803678274154663e-01" nType="0">
          <Node pos="l" depth="2" NCoef="0" IVar="0" Cut="4.5700898766517639e-01" cType="1" res="8.6595803499221802e-02" rms="3.5690608620643616e-01" purity="3.6227720975875854e-01" nType="0">
            <Node pos="l" depth="3" NCoef="0" IVar="-1" Cut="0.0000000000000000e+00" cType="1" res="1.4477415382862091e-01" rms="2.8077384829521179e-01" purity="1.4553803205490112e-01" nType="-99"/>
            <Node pos="r" depth="3" NCoef="0" IVar="-1" Cut="0.0000000000000000e+00" cType="1" res="2.4266140162944794e-01" rms="4.0470039844512939e-01" purity="5.4421812295913696e-01" nType="-99"/>
          </Node>
          <Node pos="r" depth="2" NCoef="0" IVar="-1" Cut="0.0000000000000000e+00" cType="1" res="-3.3793434500694275e-01" rms="9.5233224332332611e-02" purity="0.0000000000000000e+00" nType="-99"/>
        </Node>
        <Node pos="r" depth="1" NCoef="0" IVar="3" Cut="3.6791552734375000e+02" cType="1" res="2.7143629267811775e-03" rms="2.3343645036220551e-01" purity="5.9116578102111816e-01" nType="0">
          <Node pos="l" depth="2" NCoef="0" IVar="7" Cut="1.2993733584880829e-01" cType="1" res="-4.0287044830620289e-03" rms="2.2774654626846313e-01" purity="5.7518255710601807e-01" nType="0">
            <Node pos="l" depth="3" NCoef="0" IVar="-1" Cut="0.0000000000000000e+00" cType="1" res="8.3913542330265045e-02" rms="2.0268718898296356e-01" purity="8.6695224046707153e-01" nType="-99"/>
            <Node pos="r" depth="3" NCoef="0" IVar="8" Cut="5.7392823696136475e-01" cType="1" res="-2.4705687537789345e-02" rms="2.4424871802330017e-01" purity="3.3866196870803833e-01" nType="0">
              <Node pos="l" depth="4" NCoef="0" IVar="-1" Cut="0.0000000000000000e+00" cType="1" res="-1.4036519825458527e-01" rms="2.3506982624530792e-01" purity="2.4669097363948822e-01" nType="-99"/>
              <Node pos="r" depth="4" NCoef="0" IVar="-1" Cut="0.0000000000000000e+00" cType="1" res="-5.7040629908442497e-03" rms="2.5623768568038940e-01" purity="4.8190778493881226e-01" nType="-99"/>
            </Node>
          </Node>
          <Node pos="r" depth="2" NCoef="0" IVar="-1" Cut="0.0000000000000000e+00" cType="1" res="1.5487745404243469e-01" rms="2.6669678092002869e-01" purity="7.0979982614517212e-01" nType="-99"/>
        </Node>
      </Node>
    </BinaryTree>
    <BinaryTree type="DecisionTree" boostWeight="1.0000000000000000e+00" itree="18">
      <Node pos="s" depth="0" NCoef="0" IVar="7" Cut="1.2971460819244385e-01" cType="1" res="8.1796981394290924e-03" rms="2.6052454113960266e-01" purity="5.0600689649581909e-01" nType="0">
        <Node pos="l" depth="1" NCoef="0" IVar="3" Cut="1.1904885768890381e+00" cType="1" res="-1.5866877511143684e-02" rms="2.1618179976940155e-01" purity="8.1889969110488892e-01" nType="0">
          <Node pos="l" depth="2" NCoef="0" IVar="-1" Cut="0.0000000000000000e+00" cType="1" res="-2.0145031809806824e-01" rms="3.2842969894409180e-01" purity="5.1025116443634033e-01" nType="-99"/>
          <Node pos="r" depth="2" NCoef="0" IVar="-1" Cut="0.0000000000000000e+00" cType="1" res="-1.4493701048195362e-02" rms="1.8485644459724426e-01" purity="8.7667518854141235e-01" nType="-99"/>
        </Node>
        <Node pos="r" depth="1" NCoef="0" IVar="8" Cut="1.7141567170619965e-01" cType="1" res="2.1016225218772888e-02" rms="2.8050616383552551e-01" purity="3.3897867798805237e-01" nType="0">
          <Node pos="l" depth="2" NCoef="0" IVar="1" Cut="4.6286213397979736e-01" cType="1" res="6.0646869242191315e-02" rms="3.0068528652191162e-01" purity="2.8625372052192688e-01" nType="0">
            <Node pos="l" depth="3" NCoef="0" IVar="-1" Cut="0.0000000000000000e+00" cType="1" res="2.6210956275463104e-02" rms="2.1562440693378448e-01" purity="7.5065121054649353e-02" nType="-99"/>
            <Node pos="r" depth="3" NCoef="0" IVar="-1" Cut="0.0000000000000000e+00" cType="1" res="2.5817695260047913e-01" rms="3.5340356826782227e-01" purity="4.7861719131469727e-01" nType="-99"/>
          </Node>
          <Node pos="r" depth="2" NCoef="0" IVar="6" Cut="2.9077308177947998e+00" cType="1" res="7.2938539087772369e-03" rms="2.7182841300964355e-01" purity="3.5723504424095154e-01" nType="0">
            <Node pos="l" depth="3" NCoef="0" IVar="1" Cut="5.4629921913146973e-01" cType="1" res="4.2020037770271301e-02" rms="2.7126705646514893e-01" purity="2.0231337845325470e-01" nType="0">
              <Node pos="l" depth="4" NCoef="0" IVar="-1" Cut="0.0000000000000000e+00" cType="1" res="-4.5735616236925125e-02" rms="1.6656534373760223e-01" purity="4.1135706007480621e-02" nType="-99"/>
              <Node pos="r" depth="4" NCoef="0" IVar="-1" Cut="0.0000000000000000e+00" cType="1" res="2.3113547265529633e-01" rms="3.7051323056221008e-01" purity="4.5953366160392761e-01" nType="-99"/>
            </Node>
            <Node pos="r" depth="3" NCoef="0" IVar="6" Cut="3.6974328613281250e+02" cType="1" res="-9.5493849366903305e-03" rms="2.7049949765205383e-01" purity="4.3237671256065369e-01" nType="0">
              <Node pos="l" depth="4" NCoef="0" IVar="-1" Cut="0.0000000000000000e+00" cType="1" res="-7.7492780983448029e-02" rms="2.8004202246665955e-01" purity="3.7007546424865723e-01" nType="-99"/>
              <Node pos="r" depth="4" NCoef="0" IVar="-1" Cut="0.0000000000000000e+00" cType="1" res="4.4681008905172348e-02" rms="2.5319889187812805e-01" purity="5.2775579690933228e-01" nType="-99"/>
            </Node>
          </Node>
        </Node>
      </Node>
    </BinaryTree>
    <BinaryTree type="DecisionTree" boostWeight="1.0000000000000000e+00" itree="19">
      <Node pos="s" depth="0" NCoef="0" IVar="2" Cut="6.3707000017166138e-01" cType="1" res="3.8048885762691498e-03" rms="2.5670474767684937e-01" purity="5.1185327768325806e-01" nType="0">
        <Node pos="l" depth="1" NCoef="0" IVar="2" Cut="4.2467954754829407e-01" cType="1" res="3.6394454538822174e-02" rms="3.2782825827598572e-01" purity="2.3433944582939148e-01" nType="0">
          <Node pos="l" depth="2" NCoef="0" IVar="7" Cut="6.3276696205139160e-01" cType="1" res="-2.2755576297640800e-02" rms="2.5787600874900818e-01" purity="1.6548812389373779e-01" nType="0">
            <Node pos="l" depth="3" NCoef="0" IVar="-1" Cut="0.0000000000000000e+00" cType="1" res="-1.9025291502475739e-01" rms="2.7153268456459045e-01" purity="2.4547047913074493e-01" nType="-99"/>
            <Node pos="r" depth="3" NCoef="0" IVar="-1" Cut="0.0000000000000000e+00" cType="1" res="2.1980860829353333e-01" rms="2.3034133017063141e-01" purity="8.3685569465160370e-02" nType="-99"/>
          </Node>
          <Node pos="r" depth="2" NCoef="0" IVar="-1" Cut="0.0000000000000000e+00" cType="1" res="4.5720040798187256e-01" rms="4.0465146303176880e-01" purity="3.5870566964149475e-01" nType="-99"/>
        </Node>
        <Node pos="r" depth="1" NCoef="0" IVar="3" Cut="7.4765855073928833e-01" cType="1" res="-3.5839227493852377e-03" rms="2.3701505362987518e-01" purity="5.7477211952209473e-01" nType="0">
          <Node pos="l" depth="2" NCoef="0" IVar="5" Cut="5.8369946479797363e-01" cType="1" res="-3.6185353994369507e-02" rms="2.8361615538597107e-01" purity="2.4222078919410706e-01" nType="0">
            <Node pos="l" depth="3" NCoef="0" IVar="-1" Cut="0.0000000000000000e+00" cType="1" res="2.0638868212699890e-02" rms="3.0910032987594604e-01" purity="2.9085257649421692e-01" nType="-99"/>
            <Node pos="r" depth="3" NCoef="0" IVar="-1" Cut="0.0000000000000000e+00" cType="1" res="-3.2121625542640686e-01" rms="2.3499874770641327e-01" purity="1.7902669310569763e-01" nType="-99"/>
          </Node>
          <Node pos="r" depth="2" NCoef="0" IVar="4" Cut="5.5407083034515381e-01" cType="1" res="1.7049552407115698e-03" rms="2.2812224924564362e-01" purity="6.2872135639190674e-01" nType="0">
            <Node pos="l" depth="3" NCoef="0" IVar="6" Cut="2.7895669937133789e+01" cType="1" res="-1.9934514537453651e-02" rms="2.1435540914535522e-01" purity="5.0521010160446167e-01" nType="0">
              <Node pos="l" depth="4" NCoef="0" IVar="-1" Cut="0.0000000000000000e+00" cType="1" res="7.4424040503799915e-03" rms="2.1411339938640594e-01" purity="6.8970608711242676e-01" nType="-99"/>
              <Node pos="r" depth="4" NCoef="0" IVar="-1" Cut="0.0000000000000000e+00" cType="1" res="-1.5217757225036621e-01" rms="2.1241188049316406e-01" purity="3.2498341798782349e-01" nType="-99"/>
            </Node>
            <Node pos="r" depth="3" NCoef="0" IVar="7" Cut="2.9505326747894287e+00" cType="1" res="1.3357418589293957e-02" rms="2.3437575995922089e-01" purity="6.9522994756698608e-01" nType="0">
              <Node pos="l" depth="4" NCoef="0" IVar="-1" Cut="0.0000000000000000e+00" cType="1" res="8.0347724258899689e-02" rms="2.4166460335254669e-01" purity="7.6237732172012329e-01" nType="-99"/>
              <Node pos="r" depth="4" NCoef="0" IVar="-1" Cut="0.0000000000000000e+00" cType="1" res="-2.0878861844539642e-01" rms="1.6962990164756775e-01" purity="2.5898322463035583e-01" nType="-99"/>
            </Node>
          </Node>
        </Node>
      </Node>
    </BinaryTree>
    <BinaryTree type="DecisionTree" boostWeight="1.0000000000000000e+00" itree="20">
      <Node pos="s" depth="0" NCoef="0" IVar="2" Cut="8.9229029417037964e-01" cType="1" res="-3.0053989030420780e-03" rms="2.4175526201725006e-01" purity="5.0326216220855713e-01" nType="0">
        <Node pos="l" depth="1" NCoef="0" IVar="5" Cut="1.1479519605636597e+00" cType="1" res="-3.5299632698297501e-02" rms="2.3393477499485016e-01" purity="1.9640080630779266e-01" nType="0">
          <Node pos="l" depth="2" NCoef="0" IVar="1" Cut="4.7406068444252014e-01" cType="1" res="-6.2372073531150818e-02" rms="2.0959658920764923e-01" purity="1.1566194891929626e-01" nType="0">
            <Node pos="l" depth="3" NCoef="0" IVar="-1" Cut="0.0000000000000000e+00" cType="1" res="-1.7976647615432739e-01" rms="1.5178813040256500e-01" purity="4.0945187211036682e-02" nType="-99"/>
            <Node pos="r" depth="3" NCoef="0" IVar="-1" Cut="0.0000000000000000e+00" cType="1" res="-2.8157708048820496e-01" rms="2.6445814967155457e-01" purity="2.2529202699661255e-01" nType="-99"/>
          </Node>
          <Node pos="r" depth="2" NCoef="0" IVar="-1" Cut="0.0000000000000000e+00" cType="1" res="8.4006860852241516e-02" rms="2.7479070425033569e-01" purity="4.0091621875762939e-01" nType="-99"/>
        </Node>
        <Node pos="r" depth="1" NCoef="0" IVar="2" Cut="1.4274853467941284e+00" cType="1" res="6.6998573020100594e-03" rms="2.4322004616260529e-01" purity="5.9548199176788330e-01" nType="0">
          <Node pos="l" depth="2" NCoef="0" IVar="-1" Cut="0.0000000000000000e+00" cType="1" res="1.3858027756214142e-01" rms="3.0954328179359436e-01" purity="3.8719236850738525e-01" nType="-99"/>
          <Node pos="r" depth="2" NCoef="0" IVar="7" Cut="2.7316277027130127e+00" cType="1" res="6.8924180231988430e-04" rms="2.3187907040119171e-01" purity="6.2441128492355347e-01" nType="0">
            <Node pos="l" depth="3" NCoef="0" IVar="6" Cut="2.6435720443725586e+01" cType="1" res="-8.7653733789920807e-03" rms="2.2514070570468903e-01" purity="7.1048706769943237e-01" nType="0">
              <Node pos="l" depth="4" NCoef="0" IVar="-1" Cut="0.0000000000000000e+00" cType="1" res="2.8304658830165863e-02" rms="2.1011875569820404e-01" purity="8.3727294206619263e-01" nType="-99"/>
              <Node pos="r" depth="4" NCoef="0" IVar="-1" Cut="0.0000000000000000e+00" cType="1" res="-1.2774594128131866e-01" rms="2.4850372970104218e-01" purity="4.7094544768333435e-01" nType="-99"/>
            </Node>
            <Node pos="r" depth="3" NCoef="0" IVar="8" Cut="7.3881912231445312e-01" cType="1" res="2.4391697719693184e-02" rms="2.4637852609157562e-01" purity="4.0862166881561279e-01" nType="0">
              <Node pos="l" depth="4" NCoef="0" IVar="-1" Cut="0.0000000000000000e+00" cType="1" res="3.2009384594857693e-03" rms="2.1820576488971710e-01" purity="3.4766975045204163e-01" nType="-99"/>
              <Node pos="r" depth="4" NCoef="0" IVar="-1" Cut="0.0000000000000000e+00" cType="1" res="2.4577359855175018e-01" rms="2.9640987515449524e-01" purity="5.5655431747436523e-01" nType="-99"/>
            </Node>
          </Node>
        </Node>
      </Node>
    </BinaryTree>
    <BinaryTree type="DecisionTree" boostWeight="1.0000000000000000e+00" itree="21">
      <Node pos="s" depth="0" NCoef="0" IVar="0" Cut="8.8251942396163940e-01" cType="1" res="-6.7871608771383762e-03" rms="2.3987665772438049e-01" purity="4.8607209324836731e-01" nType="0">
        <Node pos="l" depth="1" NCoef="0" IVar="0" Cut="7.2799277305603027e-01" cType="1" res="-1.5131264925003052e-02" rms="2.4999201297760010e-01" purity="3.6447292566299438e-01" nType="0">
          <Node pos="l" depth="2" NCoef="0" IVar="2" Cut="1.6015927124023438e+02" cType="1" res="-8.3277327939867973e-03" rms="2.4913126230239868e-01" purity="3.2944348454475403e-01" nType="0">
            <Node pos="l" depth="3" NCoef="0" IVar="6" Cut="2.8274731445312500e+02" cType="1" res="-1.5378325479105115e-03" rms="2.5474432110786438e-01" purity="3.3983421325683594e-01" nType="0">
              <Node pos="l" depth="4" NCoef="0" IVar="-1" Cut="0.0000000000000000e+00" cType="1" res="-3.6445021629333496e-02" rms="2.4920718371868134e-01" purity="3.4045758843421936e-01" nType="-99"/>
              <Node pos="r" depth="4" NCoef="0" IVar="-1" Cut="0.0000000000000000e+00" cType="1" res="2.3432949185371399e-01" rms="2.9328125715255737e-01" purity="3.3340600132942200e-01" nType="-99"/>
            </Node>
            <Node pos="r" depth="3" NCoef="0" IVar="-1" Cut="0.0000000000000000e+00" cType="1" res="-2.1555916965007782e-01" rms="1.9886866211891174e-01" purity="2.5630170106887817e-01" nType="-99"/>
          </Node>
          <Node pos="r" depth="2" NCoef="0" IVar="-1" Cut="0.0000000000000000e+00" cType="1" res="-2.7334466576576233e-01" rms="2.4997824430465698e-01" purity="6.5519613027572632e-01" nType="-99"/>
        </Node>
        <Node pos="r" depth="1" NCoef="0" IVar="-1" Cut="0.0000000000000000e+00" cType="1" res="8.6923845112323761e-02" rms="2.0031018555164337e-01" purity="8.8904547691345215e-01" nType="-99"/>
      </Node>
    </BinaryTree>
    <BinaryTree type="DecisionTree" boostWeight="1.0000000000000000e+00" itree="22">
      <Node pos="s" depth="0" NCoef="0" IVar="4" Cut="2.8941288590431213e-01" cType="1" res="9.1061712009832263e-04" rms="2.3721955716609955e-01" purity="4.8388302326202393e-01" nType="0">
        <Node pos="l" depth="1" NCoef="0" IVar="6" Cut="4.8372521400451660e+00" cType="1" res="-2.6478264480829239e-02" rms="2.1364815533161163e-01" purity="3.3663639426231384e-01" nType="0">
          <Node pos="l" depth="2" NCoef="0" IVar="-1" Cut="0.0000000000000000e+00" cType="1" res="-2.1414265036582947e-01" rms="2.0799250900745392e-01" purity="1.8448933959007263e-01" nType="-99"/>
          <Node pos="r" depth="2" NCoef="0" IVar="5" Cut="6.3785421848297119e-01" cType="1" res="1.3196740765124559e-03" rms="2.1474654972553253e-01" purity="4.7155740857124329e-01" nType="0">
            <Node pos="l" depth="3" NCoef="0" IVar="-1" Cut="0.0000000000000000e+00" cType="1" res="8.7675824761390686e-02" rms="2.2464729845523834e-01" purity="4.4049870967864990e-01" nType="-99"/>
            <Node pos="r" depth="3" NCoef="0" IVar="-1" Cut="0.0000000000000000e+00" cType="1" res="-8.8683411478996277e-02" rms="2.0171123743057251e-01" purity="5.0292617082595825e-01" nType="-99"/>
          </Node>
        </Node>
        <Node pos="r" depth="1" NCoef="0" IVar="8" Cut="3.2060214877128601e-01" cType="1" res="7.9880580306053162e-03" rms="2.4243640899658203e-01" purity="5.2193242311477661e-01" nType="0">
          <Node pos="l" depth="2" NCoef="0" IVar="0" Cut="2.8785049915313721e-01" cType="1" res="-1.1767831631004810e-02" rms="2.3562231659889221e-01" purity="3.9316979050636292e-01" nType="0">
            <Node pos="l" depth="3" NCoef="0" IVar="-1" Cut="0.0000000000000000e+00" cType="1" res="3.7043941020965576e-01" rms="2.8614121675491333e-01" purity="1.3951355218887329e-01" nType="-99"/>
            <Node pos="r" depth="3" NCoef="0" IVar="6" Cut="6.7083301544189453e+00" cType="1" res="-2.8007166460156441e-02" rms="2.2027868032455444e-01" purity="4.4569134712219238e-01" nType="0">
              <Node pos="l" depth="4" NCoef="0" IVar="-1" Cut="0.0000000000000000e+00" cType="1" res="-1.5186706185340881e-01" rms="2.4172006547451019e-01" purity="2.2487564384937286e-01" nType="-99"/>
              <Node pos="r" depth="4" NCoef="0" IVar="-1" Cut="0.0000000000000000e+00" cType="1" res="-4.5875139534473419e-02" rms="1.9723336398601532e-01" purity="6.4719450473785400e-01" nType="-99"/>
            </Node>
          </Node>
          <Node pos="r" depth="2" NCoef="0" IVar="8" Cut="4.3068397045135498e-01" cType="1" res="2.0382279530167580e-02" rms="2.4580605328083038e-01" purity="6.0271400213241577e-01" nType="0">
            <Node pos="l" depth="3" NCoef="0" IVar="-1" Cut="0.0000000000000000e+00" cType="1" res="2.0353382825851440e-01" rms="2.8345397114753723e-01" purity="5.1484948396682739e-01" nType="-99"/>
            <Node pos="r" depth="3" NCoef="0" IVar="4" Cut="4.1372013092041016e-01" cType="1" res="8.3371521905064583e-03" rms="2.3507928848266602e-01" purity="6.2188905477523804e-01" nType="0">
              <Node pos="l" depth="4" NCoef="0" IVar="-1" Cut="0.0000000000000000e+00" cType="1" res="1.9754502177238464e-01" rms="2.8736481070518494e-01" purity="6.0695898532867432e-01" nType="-99"/>
              <Node pos="r" depth="4" NCoef="0" IVar="-1" Cut="0.0000000000000000e+00" cType="1" res="-1.1502538807690144e-02" rms="2.2165651619434357e-01" purity="6.2480920553207397e-01" nType="-99"/>
            </Node>
          </Node>
        </Node>
      </Node>
    </BinaryTree>
    <BinaryTree type="DecisionTree" boostWeight="1.0000000000000000e+00" itree="23">
      <Node pos="s" depth="0" NCoef="0" IVar="1" Cut="8.7189406156539917e-01" cType="1" res="4.6808528713881969e-03" rms="2.3858967423439026e-01" purity="4.9864256381988525e-01" nType="0">
        <Node pos="l" depth="1" NCoef="0" IVar="3" Cut="1.0874067544937134e+00" cType="1" res="-4.7450894489884377e-03" rms="2.4492521584033966e-01" purity="3.7655210494995117e-01" nType="0">
          <Node pos="l" depth="2" NCoef="0" IVar="3" Cut="6.9445937871932983e-01" cType="1" res="1.9021356478333473e-02" rms="2.6305529475212097e-01" purity="2.0295125246047974e-01" nType="0">
            <Node pos="l" depth="3" NCoef="0" IVar="3" Cut="1.7812420427799225e-01" cType="1" res="-1.7923070117831230e-02" rms="2.2585712373256683e-01" purity="1.2065855413675308e-01" nType="0">
              <Node pos="l" depth="4" NCoef="0" IVar="-1" Cut="0.0000000000000000e+00" cType="1" res="1.9320094585418701e-01" rms="2.9434627294540405e-01" purity="1.6166701912879944e-01" nType="-99"/>
              <Node pos="r" depth="4" NCoef="0" IVar="-1" Cut="0.0000000000000000e+00" cType="1" res="-2.0026555657386780e-01" rms="1.8233233690261841e-01" purity="1.0320576280355453e-01" nType="-99"/>
            </Node>
            <Node pos="r" depth="3" NCoef="0" IVar="-1" Cut="0.0000000000000000e+00" cType="1" res="2.4654902517795563e-01" rms="3.1091967225074768e-01" purity="3.6242535710334778e-01" nType="-99"/>
          </Node>
          <Node pos="r" depth="2" NCoef="0" IVar="6" Cut="4.3280463218688965e+00" cType="1" res="-1.6683410853147507e-02" rms="2.3438407480716705e-01" purity="4.6375498175621033e-01" nType="0">
            <Node pos="l" depth="3" NCoef="0" IVar="-1" Cut="0.0000000000000000e+00" cType="1" res="-2.3908343911170959e-01" rms="2.7250939607620239e-01" purity="1.5328656136989594e-01" nType="-99"/>
            <Node pos="r" depth="3" NCoef="0" IVar="7" Cut="2.9195744991302490e+00" cType="1" res="-3.2371648121625185e-03" rms="2.2277647256851196e-01" purity="5.3309595584869385e-01" nType="0">
              <Node pos="l" depth="4" NCoef="0" IVar="-1" Cut="0.0000000000000000e+00" cType="1" res="3.4387059509754181e-02" rms="2.3239949345588684e-01" purity="6.5002888441085815e-01" nType="-99"/>
              <Node pos="r" depth="4" NCoef="0" IVar="-1" Cut="0.0000000000000000e+00" cType="1" res="-1.6826339066028595e-01" rms="1.8936201930046082e-01" purity="2.1111516654491425e-01" nType="-99"/>
            </Node>
          </Node>
        </Node>
        <Node pos="r" depth="1" NCoef="0" IVar="-1" Cut="0.0000000000000000e+00" cType="1" res="1.4402195811271667e-01" rms="2.1433961391448975e-01" purity="8.8889777660369873e-01" nType="-99"/>
      </Node>
    </BinaryTree>
    <BinaryTree type="DecisionTree" boostWeight="1.0000000000000000e+00" itree="24">
      <Node pos="s" depth="0" NCoef="0" IVar="8" Cut="3.6570408940315247e-01" cType="1" res="1.6421100124716759e-02" rms="2.4857059121131897e-01" purity="5.1621967554092407e-01" nType="0">
        <Node pos="l" depth="1" NCoef="0" IVar="3" Cut="3.4267716407775879e+00" cType="1" res="-3.0055465176701546e-03" rms="2.3054093122482300e-01" purity="3.7311553955078125e-01" nType="0">
          <Node pos="l" depth="2" NCoef="0" IVar="4" Cut="1.0807261466979980e+00" cType="1" res="-2.2189736366271973e-02" rms="2.3464451730251312e-01" purity="2.1441012620925903e-01" nType="0">
            <Node pos="l" depth="3" NCoef="0" IVar="7" Cut="2.5365576148033142e-01" cType="1" res="-4.4457122683525085e-02" rms="1.8327274918556213e-01" purity="1.2215479463338852e-01" nType="0">
              <Node pos="l" depth="4" NCoef="0" IVar="-1" Cut="0.0000000000000000e+00" cType="1" res="-3.2139086723327637e-01" rms="2.3159575462341309e-01" purity="2.6350724697113037e-01" nType="-99"/>
              <Node pos="r" depth="4" NCoef="0" IVar="-1" Cut="0.0000000000000000e+00" cType="1" res="-1.1063176393508911e-01" rms="1.3933086395263672e-01" purity="4.2451780289411545e-02" nType="-99"/>
            </Node>
            <Node pos="r" depth="3" NCoef="0" IVar="-1" Cut="0.0000000000000000e+00" cType="1" res="6.4796864986419678e-02" rms="3.0595657229423523e-01" purity="3.9207491278648376e-01" nType="-99"/>
          </Node>
          <Node pos="r" depth="2" NCoef="0" IVar="4" Cut="7.0967602729797363e-01" cType="1" res="1.9733626395463943e-02" rms="2.2345726191997528e-01" purity="5.6123036146163940e-01" nType="0">
            <Node pos="l" depth="3" NCoef="0" IVar="-1" Cut="0.0000000000000000e+00" cType="1" res="1.7578765749931335e-01" rms="2.4493026733398438e-01" purity="4.6666634082794189e-01" nType="-99"/>
            <Node pos="r" depth="3" NCoef="0" IVar="-1" Cut="0.0000000000000000e+00" cType="1" res="-3.8153722882270813e-02" rms="2.0171004533767700e-01" purity="6.2964838743209839e-01" nType="-99"/>
          </Node>
        </Node>
        <Node pos="r" depth="1" NCoef="0" IVar="7" Cut="1.6174982488155365e-01" cType="1" res="2.9563924297690392e-02" rms="2.5923606753349304e-01" purity="6.1303466558456421e-01" nType="0">
          <Node pos="l" depth="2" NCoef="0" IVar="6" Cut="2.7421972274780273e+01" cType="1" res="3.9821504615247250e-03" rms="2.1886867284774780e-01" purity="7.9843443632125854e-01" nType="0">
            <Node pos="l" depth="3" NCoef="0" IVar="-1" Cut="0.0000000000000000e+00" cType="1" res="1.0324988514184952e-01" rms="2.2214315831661224e-01" purity="8.8017266988754272e-01" nType="-99"/>
            <Node pos="r" depth="3" NCoef="0" IVar="-1" Cut="0.0000000000000000e+00" cType="1" res="-2.8785926103591919e-01" rms="1.9136752188205719e-01" purity="4.5809918642044067e-01" nType="-99"/>
          </Node>
          <Node pos="r" depth="2" NCoef="0" IVar="7" Cut="4.0384712815284729e-01" cType="1" res="4.9945652484893799e-02" rms="2.8573286533355713e-01" purity="4.6532136201858521e-01" nType="0">
            <Node pos="l" depth="3" NCoef="0" IVar="8" Cut="6.5154302120208740e-01" cType="1" res="9.8647333681583405e-02" rms="3.3188334107398987e-01" purity="6.3766348361968994e-01" nType="0">
              <Node pos="l" depth="4" NCoef="0" IVar="-1" Cut="0.0000000000000000e+00" cType="1" res="1.2049607932567596e-01" rms="2.9162928462028503e-01" purity="6.0453766584396362e-01" nType="-99"/>
              <Node pos="r" depth="4" NCoef="0" IVar="-1" Cut="0.0000000000000000e+00" cType="1" res="2.7662852406501770e-01" rms="3.5852974653244019e-01" purity="6.6645705699920654e-01" nType="-99"/>
            </Node>
            <Node pos="r" depth="3" NCoef="0" IVar="8" Cut="4.9422132968902588e-01" cType="1" res="1.3277098536491394e-02" rms="2.3885588347911835e-01" purity="3.3556127548217773e-01" nType="0">
              <Node pos="l" depth="4" NCoef="0" IVar="-1" Cut="0.0000000000000000e+00" cType="1" res="2.8240483999252319e-01" rms="2.8111937642097473e-01" purity="3.5217311978340149e-01" nType="-99"/>
              <Node pos="r" depth="4" NCoef="0" IVar="-1" Cut="0.0000000000000000e+00" cType="1" res="-5.6076508015394211e-02" rms="2.1600115299224854e-01" purity="3.2960692048072815e-01" nType="-99"/>
            </Node>
          </Node>
        </Node>
      </Node>
    </BinaryTree>
    <BinaryTree type="DecisionTree" boostWeight="1.0000000000000000e+00" itree="25">
      <Node pos="s" depth="0" NCoef="0" IVar="4" Cut="2.5150769948959351e-01" cType="1" res="4.3070763349533081e-03" rms="2.4123132228851318e-01" purity="5.0324624776840210e-01" nType="0">
        <Node pos="l" depth="1" NCoef="0" IVar="5" Cut="8.2890301942825317e-01" cType="1" res="3.2315444201231003e-02" rms="2.5945603847503662e-01" purity="4.3188029527664185e-01" nType="0">
          <Node pos="l" depth="2" NCoef="0" IVar="4" Cut="1.4220741391181946e-01" cType="1" res="-2.6593815535306931e-02" rms="1.8922422826290131e-01" purity="3.3752349019050598e-01" nType="0">
            <Node pos="l" depth="3" NCoef="0" IVar="-1" Cut="0.0000000000000000e+00" cType="1" res="-2.7895873785018921e-01" rms="1.6789725422859192e-01" purity="2.8235897421836853e-01" nType="-99"/>
            <Node pos="r" depth="3" NCoef="0" IVar="-1" Cut="0.0000000000000000e+00" cType="1" res="-6.6561350831761956e-04" rms="2.0797257125377655e-01" purity="4.0093392133712769e-01" nType="-99"/>
          </Node>
          <Node pos="r" depth="2" NCoef="0" IVar="-1" Cut="0.0000000000000000e+00" cType="1" res="2.9622021317481995e-01" rms="3.1188905239105225e-01" purity="5.5142956972122192e-01" nType="-99"/>
        </Node>
        <Node pos="r" depth="1" NCoef="0" IVar="2" Cut="4.7780826687812805e-01" cType="1" res="-2.7803333941847086e-03" rms="2.3587028682231903e-01" purity="5.2130508422851562e-01" nType="0">
          <Node pos="l" depth="2" NCoef="0" IVar="0" Cut="3.5894089937210083e-01" cType="1" res="2.9841125011444092e-02" rms="2.8730377554893494e-01" purity="1.6820928454399109e-01" nType="0">
            <Node pos="l" depth="3" NCoef="0" IVar="-1" Cut="0.0000000000000000e+00" cType="1" res="4.4262549281120300e-01" rms="3.0459520220756531e-01" purity="2.2181986272335052e-01" nType="-99"/>
            <Node pos="r" depth="3" NCoef="0" IVar="-1" Cut="0.0000000000000000e+00" cType="1" res="-1.1591713875532150e-01" rms="2.5498276948928833e-01" purity="1.1656191200017929e-01" nType="-99"/>
          </Node>
          <Node pos="r" depth="2" NCoef="0" IVar="2" Cut="1.2739833593368530e+00" cType="1" res="-7.5239390134811401e-03" rms="2.2703449428081512e-01" purity="5.7265001535415649e-01" nType="0">
            <Node pos="l" depth="3" NCoef="0" IVar="7" Cut="2.9663339257240295e-01" cType="1" res="-3.6037337034940720e-02" rms="2.3556883633136749e-01" purity="2.1503472328186035e-01" nType="0">
              <Node pos="l" depth="4" NCoef="0" IVar="-1" Cut="0.0000000000000000e+00" cType="1" res="-1.7482525110244751e-01" rms="2.9044038057327271e-01" purity="3.9527118206024170e-01" nType="-99"/>
              <Node pos="r" depth="4" NCoef="0" IVar="-1" Cut="0.0000000000000000e+00" cType="1" res="-7.2795100510120392e-02" rms="1.7851229012012482e-01" purity="7.6147399842739105e-02" nType="-99"/>
            </Node>
            <Node pos="r" depth="3" NCoef="0" IVar="1" Cut="3.0985623598098755e-01" cType="1" res="-1.7961587291210890e-03" rms="2.2484540939331055e-01" purity="6.4448797702789307e-01" nType="0">
              <Node pos="l" depth="4" NCoef="0" IVar="-1" Cut="0.0000000000000000e+00" cType="1" res="1.2648853659629822e-01" rms="2.8195589780807495e-01" purity="2.1093454957008362e-01" nType="-99"/>
              <Node pos="r" depth="4" NCoef="0" IVar="-1" Cut="0.0000000000000000e+00" cType="1" res="-3.0562700703740120e-02" rms="2.1292996406555176e-01" purity="7.1946889162063599e-01" nType="-99"/>
            </Node>
          </Node>
        </Node>
      </Node>
    </BinaryTree>
    <BinaryTree type="DecisionTree" boostWeight="1.0000000000000000e+00" itree="26">
      <Node pos="s" depth="0" NCoef="0" IVar="8" Cut="6.7869804799556732e-02" cType="1" res="7.4958228506147861e-03" rms="2.4900376796722412e-01" purity="4.8851996660232544e-01" nType="0">
        <Node pos="l" depth="1" NCoef="0" IVar="-1" Cut="0.0000000000000000e+00" cType="1" res="4.0637120604515076e-01" rms="3.7978976964950562e-01" purity="4.3214982748031616e-01" nType="-99"/>
        <Node pos="r" depth="1" NCoef="0" IVar="8" Cut="9.0522724390029907e-01" cType="1" res="-8.3780265413224697e-04" rms="2.3682942986488342e-01" purity="4.9167647957801819e-01" nType="0">
          <Node pos="l" depth="2" NCoef="0" IVar="4" Cut="4.4868421554565430e-01" cType="1" res="-6.7275036126375198e-03" rms="2.3462061583995819e-01" purity="4.6844333410263062e-01" nType="0">
            <Node pos="l" depth="3" NCoef="0" IVar="3" Cut="7.4761956930160522e-01" cType="1" res="1.5499098226428032e-02" rms="2.5371631979942322e-01" purity="4.0544125437736511e-01" nType="0">
              <Node pos="l" depth="4" NCoef="0" IVar="-1" Cut="0.0000000000000000e+00" cType="1" res="2.7356311678886414e-01" rms="3.2527872920036316e-01" purity="2.3242145776748657e-01" nType="-99"/>
              <Node pos="r" depth="4" NCoef="0" IVar="-1" Cut="0.0000000000000000e+00" cType="1" res="-1.9903711974620819e-02" rms="2.1993026137351990e-01" purity="4.6556133031845093e-01" nType="-99"/>
            </Node>
            <Node pos="r" depth="3" NCoef="0" IVar="5" Cut="2.1461424231529236e-01" cType="1" res="-1.8629526719450951e-02" rms="2.2281640768051147e-01" purity="5.0217998027801514e-01" nType="0">
              <Node pos="l" depth="4" NCoef="0" IVar="-1" Cut="0.0000000000000000e+00" cType="1" res="-3.1703069806098938e-01" rms="1.8171368539333344e-01" purity="2.4567806720733643e-01" nType="-99"/>
              <Node pos="r" depth="4" NCoef="0" IVar="-1" Cut="0.0000000000000000e+00" cType="1" res="-5.0505708903074265e-02" rms="2.2753582894802094e-01" purity="5.4072332382202148e-01" nType="-99"/>
            </Node>
          </Node>
          <Node pos="r" depth="2" NCoef="0" IVar="-1" Cut="0.0000000000000000e+00" cType="1" res="1.4960962533950806e-01" rms="2.4926738440990448e-01" purity="6.8891888856887817e-01" nType="-99"/>
        </Node>
      </Node>
    </BinaryTree>
    <BinaryTree type="DecisionTree" boostWeight="1.0000000000000000e+00" itree="27">
      <Node pos="s" depth="0" NCoef="0" IVar="0" Cut="3.6226880550384521e-01" cType="1" res="-4.0823407471179962e-03" rms="2.1821475028991699e-01" purity="5.0878471136093140e-01" nType="0">
        <Node pos="l" depth="1" NCoef="0" IVar="1" Cut="4.3087708950042725e-01" cType="1" res="-3.5791199654340744e-02" rms="1.4987052977085114e-01" purity="1.0696224123239517e-01" nType="0">
          <Node pos="l" depth="2" NCoef="0" IVar="7" Cut="1.9500632584095001e-01" cType="1" res="-2.3199981078505516e-02" rms="1.3383135199546814e-01" purity="5.1179144531488419e-02" nType="0">
            <Node pos="l" depth="3" NCoef="0" IVar="-1" Cut="0.0000000000000000e+00" cType="1" res="-1.8543386459350586e-01" rms="1.9654487073421478e-01" purity="9.8011411726474762e-02" nType="-99"/>
            <Node pos="r" depth="3" NCoef="0" IVar="0" Cut="2.7752429246902466e-01" cType="1" res="-1.0563749819993973e-02" rms="8.5928902029991150e-02" purity="2.8490247204899788e-02" nType="0">
              <Node pos="l" depth="4" NCoef="0" IVar="-1" Cut="0.0000000000000000e+00" cType="1" res="-2.9355874657630920e-01" rms="5.1448043435811996e-02" purity="0.0000000000000000e+00" nType="-99"/>
              <Node pos="r" depth="4" NCoef="0" IVar="-1" Cut="0.0000000000000000e+00" cType="1" res="8.9857084676623344e-03" rms="1.1182270944118500e-01" purity="6.0793973505496979e-02" nType="-99"/>
            </Node>
          </Node>
          <Node pos="r" depth="2" NCoef="0" IVar="-1" Cut="0.0000000000000000e+00" cType="1" res="-2.0691485702991486e-01" rms="1.7279744148254395e-01" purity="2.0746226608753204e-01" nType="-99"/>
        </Node>
        <Node pos="r" depth="1" NCoef="0" IVar="5" Cut="1.0077638179063797e-01" cType="1" res="6.0423179529607296e-03" rms="2.3500344157218933e-01" purity="6.3708686828613281e-01" nType="0">
          <Node pos="l" depth="2" NCoef="0" IVar="-1" Cut="0.0000000000000000e+00" cType="1" res="2.6351323723793030e-01" rms="3.3121475577354431e-01" purity="5.0473570823669434e-01" nType="-99"/>
          <Node pos="r" depth="2" NCoef="0" IVar="8" Cut="8.2378792762756348e-01" cType="1" res="-5.2389613119885325e-04" rms="2.2502383589744568e-01" purity="6.4669245481491089e-01" nType="0">
            <Node pos="l" depth="3" NCoef="0" IVar="1" Cut="7.0306026935577393e-01" cType="1" res="-1.0822777636349201e-02" rms="2.2223973274230957e-01" purity="5.9924983978271484e-01" nType="0">
              <Node pos="l" depth="4" NCoef="0" IVar="-1" Cut="0.0000000000000000e+00" cType="1" res="-1.1393407732248306e-01" rms="2.2437345981597900e-01" purity="4.0355810523033142e-01" nType="-99"/>
              <Node pos="r" depth="4" NCoef="0" IVar="-1" Cut="0.0000000000000000e+00" cType="1" res="4.8196110874414444e-02" rms="2.1718877553939819e-01" purity="8.4240061044692993e-01" nType="-99"/>
            </Node>
            <Node pos="r" depth="3" NCoef="0" IVar="-1" Cut="0.0000000000000000e+00" cType="1" res="1.3833315670490265e-01" rms="2.3108795285224915e-01" purity="8.2264560461044312e-01" nType="-99"/>
          </Node>
        </Node>
      </Node>
    </BinaryTree>
    <BinaryTree type="DecisionTree" boostWeight="1.0000000000000000e+00" itree="28">
      <Node pos="s" depth="0" NCoef="0" IVar="2" Cut="1.8431968688964844e+00" cType="1" res="8.9512318372726440e-03" rms="2.4010358750820160e-01" purity="4.9111810326576233e-01" nType="0">
        <Node pos="l" depth="1" NCoef="0" IVar="4" Cut="1.2029151618480682e-01" cType="1" res="-1.6058463603258133e-02" rms="2.2956520318984985e-01" purity="2.4662280082702637e-01" nType="0">
          <Node pos="l" depth="2" NCoef="0" IVar="-1" Cut="0.0000000000000000e+00" cType="1" res="1.6623882949352264e-01" rms="2.8098949790000916e-01" purity="3.8362669944763184e-01" nType="-99"/>
          <Node pos="r" depth="2" NCoef="0" IVar="4" Cut="1.0297487974166870e+00" cType="1" res="-2.6276513934135437e-02" rms="2.1844080090522766e-01" purity="2.2454147040843964e-01" nType="0">
            <Node pos="l" depth="3" NCoef="0" IVar="1" Cut="4.0303638577461243e-01" cType="1" res="-4.2060304433107376e-02" rms="1.8813885748386383e-01" purity="1.9690503180027008e-01" nType="0">
              <Node pos="l" depth="4" NCoef="0" IVar="-1" Cut="0.0000000000000000e+00" cType="1" res="-1.2482610344886780e-01" rms="1.2289229780435562e-01" purity="7.2947181761264801e-02" nType="-99"/>
              <Node pos="r" depth="4" NCoef="0" IVar="-1" Cut="0.0000000000000000e+00" cType="1" res="-2.0350354909896851e-01" rms="2.2388778626918793e-01" purity="2.9407066106796265e-01" nType="-99"/>
            </Node>
            <Node pos="r" depth="3" NCoef="0" IVar="-1" Cut="0.0000000000000000e+00" cType="1" res="3.9279822260141373e-02" rms="2.7542886137962341e-01" purity="2.9241898655891418e-01" nType="-99"/>
          </Node>
        </Node>
        <Node pos="r" depth="1" NCoef="0" IVar="1" Cut="6.9902616739273071e-01" cType="1" res="2.3427166044712067e-02" rms="2.4483262002468109e-01" purity="6.3263517618179321e-01" nType="0">
          <Node pos="l" depth="2" NCoef="0" IVar="8" Cut="1.8256090581417084e-01" cType="1" res="4.2268555611371994e-02" rms="2.8709635138511658e-01" purity="4.4414877891540527e-01" nType="0">
            <Node pos="l" depth="3" NCoef="0" IVar="-1" Cut="0.0000000000000000e+00" cType="1" res="-9.0984664857387543e-02" rms="2.5963804125785828e-01" purity="2.2871898114681244e-01" nType="-99"/>
            <Node pos="r" depth="3" NCoef="0" IVar="4" Cut="6.5509355068206787e-01" cType="1" res="5.7881664484739304e-02" rms="2.9050466418266296e-01" purity="4.9173399806022644e-01" nType="0">
              <Node pos="l" depth="4" NCoef="0" IVar="-1" Cut="0.0000000000000000e+00" cType="1" res="4.8888348042964935e-02" rms="2.5091722607612610e-01" purity="3.6669492721557617e-01" nType="-99"/>
              <Node pos="r" depth="4" NCoef="0" IVar="-1" Cut="0.0000000000000000e+00" cType="1" res="2.5435605645179749e-01" rms="3.1483706831932068e-01" purity="5.9406274557113647e-01" nType="-99"/>
            </Node>
          </Node>
          <Node pos="r" depth="2" NCoef="0" IVar="-1" Cut="0.0000000000000000e+00" cType="1" res="-2.2878374904394150e-02" rms="1.6317668557167053e-01" purity="9.0165334939956665e-01" nType="-99"/>
        </Node>
      </Node>
    </BinaryTree>
    <BinaryTree type="DecisionTree" boostWeight="1.0000000000000000e+00" itree="29">
      <Node pos="s" depth="0" NCoef="0" IVar="0" Cut="2.5386559963226318e-01" cType="1" res="1.4731583651155233e-03" rms="2.2760766744613647e-01" purity="5.0053745508193970e-01" nType="0">
